solver_type L2R_L2LOSS_SVC_DUAL
nr_class 3
label 1 2 3
nr_feature 27487
bias -1
w
0 0 0 
-0.91925042258715706 0.73749781089784672 0.36835568337800051 
-0.016446997685874674 -0.31245781443931897 0.096730797971881124 
0.057403725355106128 0.040753395561770024 -0.083033211244008115 
0.3669463946083637 -0.31236975919333931 -0.34920050012307208 
0.14507883712126551 -0.28827677731042461 0.22869472395735377 
0.10288716964549277 -0.089344912356334252 -0.11733948510324174 
0 0 0 
0.19592160122158364 -0.10570890558608964 -0.20578409851720536 
-0.2268854321832619 0.62810443418336848 -0.15305650802719098 
-0.32980520533820651 -0.16060273264485414 0.22471751290172406 
-0.02194306621938091 -0.15657097257934027 0.051550914091548494 
0.44085192965341108 -0.42295579126805871 0.2771014742784092 
0.53267316679365306 0.056074360356182115 -0.45675770800673066 
-0.050140876736664605 -0.10440207259966416 0.051098877747686913 
-0.30088824923914337 0.16332860587887557 0.19585140680290367 
0.025531448007432681 -0.016181024372533302 -0.074899780580192435 
-0.02834765618171917 0.087573907598759826 -0.058056217188787174 
0.6781414853769826 -0.63117191385448135 -0.41495334932352912 
0 0 0 
0 0 0 
-0.073407250454846015 0.059332150305712802 -0.040824062699848708 
-0.1643408947018376 -0.15427995881724857 0.11873495219020691 
-0.24207773878950686 1.099528763682901 -0.97379616252924872 
0.01658269235927546 -0.20293954671407927 0.039984249686366879 
-1.0878789964287778 0 0.50971131506133371 
-0.1459583791661537 -0.099155064587882646 0.15450135241623827 
0 0 0 
-0.51001625656631688 0.43438728469986965 0.32751066867672912 
-0.28590282333061778 -0.24036644604098653 0.19284382974826839 
0.58858042557078449 0.085865240727827655 -0.68826700794421436 
0.53462064963430922 -0.37613224586868366 -0.66208208018999781 
0.36928463790241317 -0.34243496342611457 -0.19130080756724335 
-0.402416386989839 0.83867590555586069 -0.40865224083896273 
0.053603834885300995 0.082871731461828052 -0.14201496133982749 
-0.050573521212084339 0.049966661665244938 -0.0057094655708668568 
0 0 0 
-0.035418125100409169 0 0 
0.076147161805237618 0.19158426249184307 -0.34303938761804176 
-0.070952020688059989 -0.18375410581723192 0.052192786622147699 
-1.4106900330827539 1.8559179595878461 -0.72705942121501554 
0.84389735199729854 0 -0.9005292184624154 
0 0 0 
-0.11760152659861717 0.9265949785235148 -0.91923998615129632 
1.2653731302272244 -0.8228707321404799 -0.9539833142304448 
0.017394936046660359 -0.085783086054428262 0.0020896972634418861 
-0.71924809240326404 1.5483468902828539 -1.7238902832463447 
0 0 0 
-0.51385104923809011 -0.18382125880862754 0.39681106166144081 
0.12450559743770426 0.12055828490971343 -0.14493535922615489 
0 0 0 
0 0 0 
0 0 0 
-0.057531984546161249 0.086011807339435822 -0.025163600750373716 
0 0.3935713978988028 -0.49069729294322945 
-0.62414733937712019 0.49669604832199604 0.22475129151695869 
-0.080447967570053125 -0.2139522366029955 -0.13290256470417033 
0.30053992028213405 -0.064553776976403132 -0.19810768508954543 
0.0054391818807245102 -0.10666440110673604 -0.0012762302364057228 
0.3247608903165653 -0.33033064803391649 -0.13177114191280118 
-0.2625714924687107 -0.28742812398372336 0.27530726396878141 
0.065437324939654151 0.019659939846492447 0.065994738654282681 
-0.0044299043061127759 0.058579550939764927 -0.057744248920680974 
-0.38334670069209686 0.39357139789880291 -0.069561128177493547 
-0.19906623928428116 0.093862461957979509 0.15745634654769469 
0 0 0 
-0.90067795103281578 -0.078853936950437437 0.97835262865599482 
0 0 0 
-1.1538281850725551 0.82966389314787303 -0.36509771778364108 
-0.1997329284390475 0.21584814461433532 0.099561087829121236 
0 0 0 
-0.3609040361993453 0 0.38959923390846879 
-0.070133045107708472 -0.17590441869284809 0.039431028791926712 
0 0 0 
-0.31713781246293959 -0.69393537047623444 0.50135224229088005 
0 0 0 
0.085202004563273204 -0.022074247236322096 0.067881842074021134 
-0.084349329887663874 -0.16940068746534759 0.12492052456831795 
0 0 0 
-0.28643530332203959 0.83414767436559256 -0.5205704987694848 
0 0 0 
0.028670645367478407 -0.19500948672927507 -0.015549677521509125 
-0.20623706693274121 -0.61475681561450823 0.57164663495226753 
0 0 0 
0 0 0 
-0.30247376090008887 -0.045532743376296834 0.12096754608386745 
-0.065510903194335848 -0.20035378500129211 0.043190375489357231 
0.46402568758807106 0.20968881738506384 -0.38337992348652089 
0.19658974320181524 -0.23497336311969427 -0.29418793735501125 
0 0 0 
0 0 0 
-0.14162825301974394 -0.24449734239114956 0.20057959766501246 
0.069980617830412761 -0.12620623866422503 0.17086121667590085 
-0.66494695364078849 -0.12620623866422503 0.71932504755790005 
-0.84052815192850583 -0.078163663063592986 0.91367524467688888 
0 0 0 
-0.032514327305165604 -0.19893007835663079 0.15048475032506756 
-0.13793832799758146 -0.55413016442194052 0.3136816677850176 
0.56126020800088439 0 -0.38435103975342116 
-0.22228633599689845 -0.050672669922564806 0.16837199166104411 
0.067132564265833139 -0.032251055129682668 -0.1350146415403288 
0 0 0 
1.3631874009455909 -1.0642911643112132 -1.548603868406019 
0.019313826332411056 -0.25320722020766723 0.000421986570786632 
0.052085687934258204 -0.33397729866865505 -0.042614952734733619 
0.17157081989668999 -0.15224996568197161 -0.17728234741866156 
1.13266153774856 -0.5647254004161425 -0.9253463682697517 
-0.5771151336932191 0.64242911778535117 -0.040228198673096641 
0.31095270253546087 -0.42379947847236799 -0.0026424001567884057 
-0.080802861101980261 -0.085993001471192126 0.10551421748555613 
-0.42740243454153271 0.19530988838839547 0.2779862063851985 
-0.11053739304656235 -0.27884862868282628 0.11153876097298863 
-0.035829761259743673 -0.2308396116412357 0.0048906185180464003 
0 0 0 
-0.067478372397545644 -0.065835253997405321 0.13022415479179245 
0 0 0 
-0.52785999875083045 0.26329632771253819 0.60133156519826736 
-0.57902559798885378 0.89946320027434801 -0.45567445645548987 
-0.46990107290246375 0.1239644971832683 0.31374163939598276 
0.16143981928416176 -0.0091457310904311685 -0.13474951649147765 
0 0.26329632771253825 -0.92678633567607271 
-0.12407646596091755 -0.54170256128533523 0.19716858577551105 
0 0.26329632771253825 -0.92678633567607271 
-0.82983823554690062 -0.18141946147451279 1.1369818647611944 
-0.44589212196753925 0.68540325956584303 -0.35297083189554079 
0 0.26329632771253825 -0.92678633567607271 
0.038799330764214109 0.017546317205948032 -0.066783428615643362 
-1.1502642158256364 1.0921568796188068 0.014670508626417323 
-0.12406888291461056 0.4389392892988957 -0.016444708716345961 
0.037598900265944202 -0.23691125186603554 0.018788435780858929 
1.5425327967891536 -0.91457032213070288 -1.2556444670765758 
0 0 0 
0.3601951920438648 0.6117771257146899 -0.44189405716634061 
-1.0333096682261558 -0.19564217953047761 0.13900451582673617 
-0.30299487186830432 0.015567998579029737 0.21770603186108406 
0.036485276847314715 -0.40477230104771128 -0.056184984410882148 
0.52324354768837089 -0.44943506962943669 0.048225728941213984 
0.6798483095745822 -0.7448850381685217 -0.37564256568187387 
0 -0.066945219224550892 0 
-0.74971215383128931 0.58536349417999323 0.48077630409140365 
0.044278972459671474 0.086824821940930844 -0.032991779657600154 
-0.053546160914551728 0.082048793497282932 -0.18711203376939994 
-0.12830920436984247 0.073824669380166366 0.0020790784517426978 
-0.41556685152770828 0 0.21079569803239434 
-0.072361286165636501 -0.11894010837042272 0.085925851667612949 
0 0 0 
-0.016830433715184213 0.040826924480366553 0.050416961545890288 
-0.88499426973584749 -0.86095643886589623 1.3233272411441956 
-0.34290121381257049 1.3344904230060755 -1.1573537965635283 
1.1851682539919002 -0.13811988696488375 -0.52166011240786758 
-0.46186373220076798 0.40254129303194852 -0.51324112388006826 
-0.8089536574186188 0.1705354805983641 0.60356797822091834 
0 0 0 
0 0 0 
-0.08971621178618662 0.13218472052714433 0.080345443002438677 
-0.35808000016235519 -0.22931616536442115 0.47986177772200322 
-0.15523888267348501 -0.059134067349612254 0.26134016812958294 
-0.23854834651860837 -0.29102760934614857 0.85603134862056496 
0.15848931411612194 0.024305028346240001 -0.29466820625685169 
-0.50268392350044844 -0.13449383943893145 0.38424593933703122 
0.27979924108212778 -0.018978490679568725 -0.5701802367077653 
0.0047805521197122379 0.14688058690801034 -0.27311548030404764 
-0.13820791082336861 0.03295293723893996 0.029050434125356035 
0.089465360442030906 -0.040989360013921131 -0.073560133294737068 
-0.066418545071815299 0 0.16211723371406897 
-0.58990295257071723 1.1330762076314578 -0.45289966781939767 
-0.28583006584726839 -0.034099289713417899 0.27872291099804875 
-0.28583006584726839 -0.034099289713417899 0.27872291099804875 
-0.28583006584726839 -0.034099289713417899 0.27872291099804875 
-0.88494271930164736 -0.034099289713417899 0.89143173510222273 
0 0 0 
0 0 0 
0 0 0 
0 0 0 
0 0 0 
-0.56293619481969648 5.6017112618626086e-18 0.40185237232541193 
-0.61441930148589297 0.71076733755105537 -0.15003483804442788 
0 -2.8008556309313043e-18 1.5317921143756611e-17 
0.37358998082415795 -0.28825638205618903 -0.5120330091110491 
-0.089237932478084189 0.079498657911491674 -0.037714792256120649 
0 0 0 
0.16203368038641047 0 -0.17356785730114757 
0.16203368038641047 0 -0.17356785730114757 
0.16203368038641047 0 -0.17356785730114757 
-0.29342804467725603 -0.43008913599829135 0.3501964291957369 
0 0 0 
1.0542415470364397 2.8008556309313043e-18 -1.3550601470934798 
-0.042408647791292262 -0.47957729019530609 0.098651308703321505 
0.052272515630897867 -0.031264182243121733 -0.057592209821434273 
0.060908226851085198 -1.1130102881466444 0.4250439991553227 
0.19772481541737658 0.073180814149982495 -0.17706929435953894 
-0.044610797314841119 -0.083461803413457269 0.020114794160860754 
-1.2427166755064321 0.26785103101212931 0.68510779232201502 
0.36127094152418915 -0.08495542045223671 -0.18779367035835956 
0.16203368038641036 0 -0.17356785730114746 
0 0 0 
0.64618137284921107 -0.283570391094769 -0.48392973269527056 
0.14332703837128757 -0.014000398031546662 -0.20199710461616913 
1.5951335006527356 -0.45397194244941319 -1.4093415321105227 
-1.237066489971407 -0.17438053907471451 1.2050137322152821 
0.18211931379280544 0 0 
0 0 0 
-0.28636474342986334 0.24916045937196488 -0.015358807045277654 
1.8737558980542832 -0.60750643393059911 -1.8935347401216036 
-0.084855263168015699 -0.0019610737258595333 0.010616207351283418 
0.12935290755978843 0.13763655577196995 -0.25556169834588865 
-1.4287847987081217 -0.038299877004893075 0.65012871724203858 
0.013528810207013166 0.0055849124749049401 -0.12216436387868407 
0.0018309533819949996 -0.10538689155188796 -0.037309107955426662 
-0.49626333979480081 0.12557981317151021 0.3362883597633648 
0.32058213788082535 -0.026666218949396824 -0.71148273961643416 
-0.089306461785330429 -0.026666218949396824 0.27124189826402118 
0.15294214866875383 -0.46689408584283759 -0.1481250469571587 
0 0 0 
-0.049318249408916583 -0.016271482179805542 0.05116409882434033 
0 0 0 
0 0 0 
-0.74465695410921828 -0.51889309621693136 0.90044582892020297 
0 0 0 
0.49578297491546114 -0.59217171862169082 -0.15383066457650593 
0 0 0 
-0.42009978637588291 -0.0061672469244241747 0.26552860523985067 
-0.36211571374023094 0.0096627749476975305 0.40487593260796512 
0 0 0 
0 0 0 
0 0 0 
0.44390328380650723 -0.017319750126430181 -0.89110537917512544 
-0.32152240262137582 -1.1012304364386607 1.0803758383561208 
-0.14206572020269595 -0.25127567801606132 0.07256505634137693 
0.081925376704917036 -0.20410232254260768 -0.055405307220152085 
-0.67333739493844624 -0.24745215963826958 0.55924144789923602 
0.072549804361116868 -0.18554037703119097 -0.061041376279692382 
-0.61178394319874718 -0.1502264137866246 0.69158150356946813 
0.38080473503062212 -0.051092392945003222 -0.40651108095107674 
0.85813265327119115 1.1860937048987428 -1.7658302699283894 
1.4759260298434307 -0.29657958468902001 -1.5309732716370084 
-0.40781031595740291 -0.69659667207514819 0.66405709625636455 
-0.20289557604052594 -0.44841805345472679 0.49598187680886829 
-0.67542778947463566 0.10958911502411615 0.18633088454184291 
0 0 0 
-0.1494465676113044 0 0 
-0.14944656761130445 0 -6.1271684575026443e-17 
0.017194285152747537 -0.67230936999293911 0.66086181238335362 
-0.39205421196950768 0.19236545881620282 0.10195837493714359 
-0.42511039953349683 0.17119159072836748 0.4251681444601908 
0.27397652815104329 -0.54173000874012034 0.036165694844863455 
-0.46935465903027551 0.027855651661995166 0.3804810990197463 
0.39942097567930074 -0.13906642357602586 -0.015287084832874951 
0.47369590223140257 -0.1047955116327582 0.023243323873477197 
0.19374061121566072 -0.29654799725485498 -0.12703189439807072 
0.12357812812058271 0.12901862013398674 -0.37371398650482546 
0.42740438603819475 0.13171199817003185 -0.52439114256785346 
-0.33519474059842397 0.10524393037818022 0.33816042752221609 
0.16864795140922351 -0.70568997174877857 0.11257987946071121 
-0.61483618986714128 -0.5983488717839226 0.62146016678262173 
0 0 0 
0 0 0 
0.15024673655583845 -0.27187314498658294 -0.062529208750994547 
-1.0506286540810124 -0.081925551166847591 0.92313759356980329 
0 0 0 
0.086128666283446509 -0.10102711120640326 -0.10042027753159206 
-1.0506286540810124 -0.081925551166847591 0.92313759356980329 
0.8008597485989235 -0.28037787156784338 -0.70928702991450931 
0.78239026667600065 0.075010617814160796 -0.80424910372388725 
0.049277847867099211 -0.18795860352543017 0.17484774381159995 
0 0 0 
0.55595810584417604 0.40434666581830431 -0.28498080791781027 
0 0 0 
-0.11793671117623497 0.16770548949493128 0.056660765990938909 
0 0 0 
0 0 0 
0 0 0 
0 0 0 
2.4883641639335137 -0.77669642344381018 -2.3592124623047983 
0.344429021446992 0.11932165032541718 -0.52516518356776487 
-0.48609913338744737 -0.043735421855106385 0.46373252854641217 
0.11171539634373877 0.84474173374032357 -0.63482757585195704 
0 0 0 
-0.73999901896826636 0.22982276943562657 0.4323811620909454 
-0.043220956956461096 -0.13629886580225006 0.20537748126444111 
0 -5.6017112618626086e-18 0 
1.228978950842039e-17 -0.60184785902532767 2.5529868572927685e-18 
0.44431019509823233 -0.17579868465458739 -0.34698041144185904 
-0.40987070825045557 -0.44198681592784483 0.63302425358891601 
0 0 0 
0 0 0 
0 0 0 
-0.23264366948974513 -0.035534885581414877 0.35925691080505801 
-0.29953434550665592 -0.36077774209620689 0.79859706308263412 
-1.266531862335432 0.11595088607317768 1.3821293817775184 
-0.12995058704295601 -0.045935607574578166 0.04901135028005326 
-0.22710150146113225 -0.20121633593972713 0.017510519384270361 
-0.24726375057907377 -0.57270667639369843 0.83911437593216598 
0 0 0 
-0.33743106219336266 -0.35482809941791754 0.4365954482348775 
0 0 0 
-1.3208599310027591 -0.20121633593972715 1.4802493456723242 
1.2888329162359797 -0.38375240126714827 -1.3715546011128217 
0.0024749800671464567 -0.34519532632156263 0.032013849540324477 
0 0 0 
-0.29419316240988386 -0.14431751168970189 0.21496984078814785 
0.12676355581545448 -0.064062374896701663 -0.1656563393542422 
1.1924782921766517 -0.21236479432575331 -0.96169463290803159 
0 0 0 
0 0 0 
0 0 0 
0 0 0 
0 0 0 
0 0 0 
0 0 0 
1.3982802028845742 0 -1.4715986274133395 
0.17047402058214065 0.040782422068554598 -0.14629311266599515 
-0.4985972451209586 0 0.77735158209279898 
-0.99770198154855139 0.31863208273436033 0.54680196149795635 
-0.17337502512429914 -0.27877729952900504 0.11336254699465372 
0 0 0 
0 0 0 
0 0 0 
0 0 0 
0 0 0 
0 0 0 
-0.4985972451209586 0 0.77735158209279898 
-0.22208470158401972 -0.066040120994915533 0.38619720211808195 
-0.24727108988512972 0.15483038265351548 0.21563401851128638 
0.09595476519149744 -0.45061101660608444 -0.053540728466323399 
0.94606158048041611 -0.2429712574614446 -0.94494316855871063 
0.34559926991786177 0.46166305121113727 -0.4403357542345665 
0.74404545442361669 -0.30434399641880061 -0.53457427575871819 
-0.09129912354036325 -0.1328862133934515 0.32687128879050964 
0.28119560945268712 0.50275674423062799 -0.56631466887661097 
-0.0022139112628362591 -0.34732058895985241 0.068668096451343835 
-0.5577537776941206 1.0889376738595355 -0.6408337523579074 
0.28684137890292355 0.29457367824766356 -0.51554176551008213 
0.018927126639810735 0.27792997301713307 0.25715548995324605 
0 0 0 
-0.15756040590020209 -0.12635286543488666 0.19827987586119394 
-0.41833649796065686 0.15257751671659336 0.13969167400214727 
0 0 0.15138493523026561 
0.71239575412112877 -0.20343355037779881 -0.80984762517338671 
-0.1059569387676555 -0.28848849963670259 0 
-0.5381492913985445 0.69909314430315594 -0.37820633529020509 
0.51900281165304596 -0.018535173869480823 -0.53085097290673533 
0.20247271644755901 -0.022438982866182126 -0.082632811357692237 
-0.22419350256539353 0.31889869021658729 0 
-0.29333195807605017 -0.10281510068687222 0.31874389089275523 
-0.27449627562786216 0.058089193795716129 0.26840444500180188 
-0.22419350256539353 0.31889869021658729 0 
-0.22419350256539353 0.31889869021658729 0 
0.027283597189719986 -0.18709905213575631 0.15523446927503473 
-0.20914573207839038 0.11771168726574743 0.1389791499581767 
-0.22419350256539353 0.31889869021658729 0 
0.061853829386280812 0.60071824162043175 -0.47104141263575644 
0.22029604923882004 -0.25078473348584462 -0.10290185915140317 
-0.036496121124633844 -0.12862923572584331 0.16657862162424222 
0.032008997194244812 -0.15919960581460693 -0.026879592063808116 
0 0.34025319413004462 -0.39451347591097613 
0.072707780115251003 -0.37799962014565686 0.10077158351926753 
0 0 0 
-0.18566309531406278 0.2923124729891739 -0.56219855216956183 
0.082117591701592593 -0.18609389464397047 0.057742661976097232 
0.018689488817507295 -0.046060785532527106 -0.036535549432164166 
-0.83297814639126067 0.1772770930872532 0.79191970903969267 
0 0.34025319413004462 -0.39451347591097613 
0 0.34025319413004462 -0.39451347591097613 
0 0.34025319413004462 -0.39451347591097613 
0.38875550674729109 -0.35425759310701432 -0.14793716400483056 
0.77140581191091895 0.85123887135437137 -0.93951575529551667 
0.011098439820518814 0.42834448727977659 -0.15304108973517913 
0 0 0 
0.37107775778910956 0.42651382662743825 -0.55169422563556136 
-0.27285097435028305 -0.37715146312411879 0.33122958906821198 
-0.18960711105444336 -0.40009993594789556 0.39898522221999239 
0.017966833282375208 -0.26864050451331495 0.17836450929345565 
-0.59261934443272957 0.4161261000711457 0.27821415153580481 
0.31071029376073506 0.14827397963409869 -0.38090980385630174 
0.053847180999335977 -0.88875239570982589 0.10781843648924651 
-0.37473601943423457 0.4449533084040182 0.21571255425815536 
-1.2739014186093682 0.94351076199227779 -0.042300280296037725 
-0.16752989227498002 -0.24506409341502264 0.25410347154667973 
-0.80902730240428788 1.3946151564767124 -0.1587774301290662 
0.10490997538554454 -0.0052229415929356329 -0.26114606590166567 
-0.29437392484224539 0.04814680769431566 0.14941703900428738 
0 0 0 
0 0 0 
0.38712190249924411 -0.27498820813441238 -0.19912789045049745 
-0.31157098193973776 0.36471453508440815 0.033125204534516256 
-0.30830001442208138 -0.1206944714517591 0.34635334253949301 
0 0 0 
-0.48311969032554336 -0.43341423747706298 0.76242008679094908 
-0.028488182178851899 -0.11089427120978235 0.0050601286906289972 
0 0 0 
0 0 0 
0 0 0 
-0.37819627323157684 0.11362933580155476 0.21549325761904795 
0 0 0 
0.39607284883367749 0.5245689074904144 -0.80198512683709489 
0 0 0 
-1.3655365868015839 0 0.66630432136794027 
0.077769756641742557 -1.0075345312685577 -0.045562284425843771 
0.2487850235634422 -1.1165851791086985 0.65376749722811289 
0.092368754184641105 -0.19115979600467042 -0.048912373927444908 
0 0 0 
-0.35871243810928433 0.16777221890456562 0.37803603446048839 
-0.70446592787830287 -0.14483590453196407 0.7547578129606699 
0.02163199865585471 -0.63250663929694839 0.3353401899877041 
-0.11344152296932675 -0.26826426961963479 0.113398064378915 
1.0554528818816604 -0.30053899588981176 -0.97385252592249794 
0.12875184838796033 -0.11159205857150963 0.059250966147556969 
-0.079993289702719003 1.3464186934339795 -0.75647733259538352 
0.095593038425140886 0.017011831834783556 -0.19027183907169568 
0 0 0 
0 0 0 
-0.50013184018534729 0.78803929023220154 -0.25319993793988044 
0.14868868539521199 -0.20211093812515435 -0.16417113248014506 
0.0034825171710087428 -0.65147791591066451 0.3136284073532829 
0.32564999381759285 -0.12265782237034478 -0.027496883173026954 
0.060032132964205669 -0.12416443049268183 -0.31209861061814181 
0.57639073040346234 -0.38728959062645707 -0.082380970537968237 
-0.41005760600444952 -0.14943746585941273 0.22302436691614547 
0.50859943044869704 0.015784061826079294 -0.35538131012695345 
0.49747542252593346 -0.60936966335706488 -0.15461811029302905 
0 0 0 
-0.47941288597776544 -0.24695262676125712 0.54577557873474747 
-0.10647021016408494 0.021227153847869159 0.12889303050700077 
0.196986936279955 0 -0.63503356691146817 
0 0 0 
-0.11854115398598337 -0.32756267223224744 0.34678005606480905 
0 0 0 
0 0 0 
0.11104216294646642 0.48445694192421734 -0.099704331248493483 
0.81860233865495391 0.42180825770693392 -0.76704331731665287 
0.3173420660801477 -0.30334659994655844 -0.091759485610977284 
0 0 0 
0.065683780896868146 -0.083300756938133477 -0.13973445608201757 
-0.21374619563796277 -0.0014950035463782171 0.1028806066591392 
0.5990467621490364 -0.37861757867520396 -0.27704791014349378 
0.33925984976132645 -0.096057097557825877 0 
0 0 0 
0 0 0 
0 0 0 
0.74815714387462651 -0.38384278127941257 -0.60583345379877229 
-1.1061017860963434 -0.33831967440977617 1.3739331373737722 
0.33925984976132645 0.41985908990870291 -0.43713208781149215 
0 0 0 
0.33925984976132645 -0.096057097557825877 0 
-0.48674742310031555 -0.05009933947574613 0.25924527166653349 
0.32171024867815146 -0.096057097557825877 -0.48453359890219405 
0.35700075237205275 0.30066311078122232 -0.88753681531837703 
0 0 0 
0 0 0 
-0.39900581452097966 0.71272922583723253 -0.92562731710810964 
0 0 0 
-0.29101372677414905 2.8008556309313043e-18 0.47252734121706064 
0.27322236719925186 -0.2186868265289631 0.10486017928159978 
-0.49907145967931427 0.12988685074919432 0.40303983252266529 
0.54949460085934743 0.14088092221181914 -0.80297899716350274 
1.9251104237072409 -1.197377588454573 -1.8307065160717 
-0.38597933006862117 0.65898698164228564 -0.071300938164506888 
0 0 0 
0 0 0 
0.14925037953371748 -0.027208807426754175 -0.21667363321002706 
1.1770889705495897 -0.42704833304884143 -0.81429839514206526 
0 0 0 
0.14925037953371748 -0.027208807426754175 -0.21667363321002706 
-0.14517462858740826 -0.027208807426754175 0.15985823183467557 
-0.67650653072863409 0 1.2172369725369094 
0.11439039946579932 0.1198420852844404 -0.048232115044162249 
-0.58597601769025864 -0.086531542263862365 0.67539378882016254 
0.37548042905802009 -1.0962122399808576 0.23053693706284109 
0.11036748280907303 0.66008021934798822 -0.5956872920370373 
0.98768753754913896 0 -0.22016421164984559 
0 0 0 
0.01025779173773245 0.0028297203810862303 -0.055744001430770282 
0 0 0 
0 0 0 
-0.53624870038772299 0 0.5312743347868597 
0 0 0 
0.34225327115342463 -5.6017112618626086e-18 -0.66627756115258618 
0 0 0 
0 0 0 
0.30051481363490379 -0.20589307393731046 -0.11822255259090507 
-0.51528498858388516 -0.31737741340590736 0.56262959260805179 
0 0 0 
-0.43764750165430183 -0.053645848956863126 0.39359022452786208 
0 0 0 
-0.56532624768726125 0.14567886850481346 0.19772644632204114 
1.2111537736486961 0 -1.2111162855660706 
0 0 0 
0 0 0 
0 0.16240542705321037 -0.75013030648915358 
0.10516899631962617 0.31094880112198209 -0.022559912642337008 
0 0.16240542705321037 -0.75013030648915358 
-0.43777866624523792 0.43778676235235747 -0.35841433735215261 
0 0.16240542705321037 -0.75013030648915358 
-0.15064155236993013 -0.16981956662723657 0.17924436392996976 
-0.012364488377283094 -0.54822521475842101 0.30290935167048089 
-0.16466271392076254 0.21834937779516653 0.012169539885420091 
-0.92637697027508992 0.9412446373632759 -0.12770225968731166 
0 0 0 
0 0 0 
0.83324093808656541 -0.098324174954861371 -0.42314402434167053 
-0.0081637214705645479 0.84690483639109171 -0.73464171224257435 
-0.5770902443747481 1.3580970403975057 -0.60351268200845787 
0.22073120042084399 -0.24854865313520286 0.13468510961578478 
1.9121949458351097 -0.11189193076100805 -1.5341400617189027 
0 0 0 
0 0 0 
-0.0034933247100989344 0.030459413503927477 0.18415637246063718 
0.16221943682203846 0.044285175478794889 -0.16110381896556084 
0.53715649089300488 0.94585138453258966 -0.98551111495960919 
-0.65914454471299699 -0.076902566165024028 1.0851766839183166 
0 0 0 
-0.018810952163772238 0.074404704055234888 0.019934291744503368 
0.24325843093066321 -0.64482954841169526 -0.10568848689528673 
0 0 0 
0.86043124122262316 -0.54224499731282372 -0.97667507324253799 
0.41799999193187198 0.92014215069128247 -0.60522627418934516 
-0.077401146816538549 -0.24713423868887707 0.084833286923472528 
0.16300956391195406 -0.64482954841169582 -0.071265411595201639 
0.21641314254390237 0.20470286627667542 -0.23649532250477326 
-0.23107557935937331 0.1677498658842034 0.051039997622353631 
-0.036219151991355947 0.12634803624103058 0.082014447899283763 
-0.46453842935483219 1.292977023429881 -0.87737397930276773 
-0.55964372398845597 1.1687530360754566 -0.23566546728668289 
-0.2000291969398216 -0.10120137827020738 0.11178190684124643 
0 0 0 
0 0 0 
0 0 0 
-0.8563969345820478 0 0.74301657288184497 
0 0 0 
-0.16464653219417588 -0.25155335034152682 0.2156496992897047 
-0.16464653219417585 0 0.17394906780468131 
0 0 0 
0 0.079015950577790234 -0.42543596843488468 
-0.1040538145660287 0 0.13744309860720941 
-0.070760901937322443 0 0.12826543246073721 
0 0 0 
-0.71779053781531166 0.13218992725134598 0.73908257186854354 
0 0 0 
0.16541292098922419 -0.054108294564643368 -0.18841097221756414 
-0.10085449406293984 -0.19527931366423343 0.69057875440766769 
-0.16771959971295114 0.15864629483361589 -0.1049135110177318 
-0.1579843327852741 -0.18880556755048861 0.15853768474035745 
0.20423307576759625 -0.48011295558428541 0.54464987358353123 
-0.0041562858202535014 -0.40197973259662489 0.20204707051966903 
0 -0.27856291008107287 0.072815269796773927 
-0.10085449406293984 -0.19527931366423343 0.69057875440766769 
-0.12390900568920056 -0.19852310802680262 0.12559901375360394 
0 0 0 
0.744282957018646 0.48647921220796531 -0.96521013715524429 
-0.46941239615276831 0.45918121741639656 -0.042844894145477541 
-0.03722363583893265 -0.082285209370334719 0.23813165991191665 
0 0 0 
0.79587802016561704 -0.13864223449471758 -0.719355142711403 
0 0 0 
-0.46941239615276831 0.45918121741639656 -0.042844894145477541 
0 0 0 
-0.46941239615276825 0.98818583991696307 -0.42761463057979332 
-0.24756623909362188 0.015090514464300526 0.29140050864516254 
0 0 0 
0 0 0 
0.35897890459949972 0.11762287648835125 -0.57187112494438774 
-0.06721835753598325 -0.27243506527529798 0.056319289215213862 
-1.0402642114829523 0 1.2013497317245709 
0 0 0 
0 0 0 
-0.12271544369860049 0.28718950326501608 -0.2011785707330189 
0 0 0 
0 0 0 
0 0 0 
-0.22625680839299531 -0.37494054419462514 0.30345387894708059 
0 0 0 
0 0 0 
0.60916497964877381 -0.67613419339076897 -0.49961776731356183 
0 0 0 
-0.13171718057745108 -0.092113859717984553 -0.0068388238347009273 
0.50002662189881852 0.22188166616207899 -0.32105904233103733 
0 0 0 
1.5672180375840641 0 -1.081710081143145 
0.15122176140399687 -0.53440830616863511 -0.07836917804783225 
-0.12742611676581556 -0.085359839130030604 0.24329275686084731 
0.40665408341147252 0.19416525177150581 -0.44551239948282195 
0.16557534309720126 0.63663105347062388 -0.39030598739634903 
0 0 0 
-0.01370274993178705 0.08497014680702708 0.016871764987111574 
-0.16190611910101593 0.0078619115846952359 -0.015999239389621896 
-0.10439439473629526 0.23081887326577705 0.0050119395363178686 
0.36509011040877748 0 -0.097652907874209438 
-0.24027354672966836 0.35191082506847626 0.17485662257107037 
-0.25344824641860525 -0.24823273274374111 0.19945956071773466 
-0.056735535474836826 0.13256590405270544 -0.1407838695465633 
0.9784031164038447 -0.41634730733011488 -0.85107872049729294 
0.36509011040877748 0 -0.097652907874209438 
-0.14947437703575428 0.66718016628557619 -0.69786008988003578 
-0.13982607048579582 1.4004278154656522e-18 0.26116951248247333 
0.10932374222036526 -0.7501245800903118 0.69024998271377702 
0 0 0 
-0.066844025692224113 0 0.11072846933847671 
-0.38699186081012166 0 0.29146524969421583 
0.070194189848656927 0 0 
0.070194189848656885 0.46392454162599633 -1.1298093451738838 
0.070194189848656927 0 0 
0 0 0 
0 0 0 
0.022377767891704103 0 -0.0039301009957097895 
-0.0013701684878118156 0.61823339500789687 -0.68947510060852168 
-0.34607852799761663 0 0.40000021680374004 
0.022377767891704103 0 -0.0039301009957097895 
0.022377767891704103 0 -0.0039301009957097895 
0.83600549449550809 -1.4004278154656522e-18 -0.47490111965968063 
0.030340144045788001 -0.08789483362144436 -0.19062754539046736 
-0.18838398038032744 -0.060874423308884103 0.45859296606246364 
0 0 0 
-0.22336820037198526 -0.16272282745532532 0.69886470900141129 
1.206518251393023 -0.7495343224802542 -0.35830294347465191 
-0.39663793241763334 0.42953520675511903 0 
-0.45440979610062621 0.07500859694970527 0.22639089146172997 
-0.021057235943431146 0.20061023468102501 -0.34545651805299499 
-0.39663793241763334 0.42953520675511903 0 
0.4907816427138762 0.45176600633380393 -0.87378686334428135 
0.40298308514974057 0.19780962473869965 -0.67686554515072095 
-0.40256349818442472 0.19820689210647083 0.16163573704799647 
0 0 0 
-0.036835748027206482 0 0.1070944256792522 
-0.39663793241763334 0.42953520675511903 0 
0 0 0 
0 0.6186704019671756 -0.86582989936334154 
0.32566244337988487 -0.04564455258559693 -0.054921944303192465 
0.49292021426580396 0.18701435063913507 -0.52692223125054549 
0.8893280352964994 -1.2933273054045937 0.11228036987567533 
1.0356853790294649 -0.11103485468145043 -0.89721210780765059 
-0.0073183455716930752 -0.32879492802938654 0.42514176351905431 
-0.20315816743359208 -0.006494651340990993 0.1147403777271178 
0.4758790539455538 0.066944105273733012 -0.45856903001932309 
-0.68344964046588885 -0.37840760083940522 0.95886359255882259 
-0.02301752411061133 0.49072375853000416 -0.46911655905470812 
0 0 0 
0 0 0 
-0.99600570569401525 -0.37840760083940517 0.99982624500444062 
0.078639270011295337 -0.37840760083940539 0.012664299284839135 
0.00040276959468172821 0.10907481656388944 -0.017441837349141492 
1.29603444398618 -0.35805059431965547 -0.42604181203767183 
0 0 0 
0 0 0 
0 0 0 
-0.52473205656229716 -0.3221056592896443 0.50996020896199412 
0.44825020789018877 -0.60102424687691092 -0.13979013943445609 
-0.28731234424998675 0.0023100021373855849 0.040486299383869724 
1.3192406233831337 0 -0.66487478463637784 
-0.33053945045127459 0.63302156336851401 -0.54935914282043397 
-0.42142251218124099 0.18275279025006971 0.34932157110328299 
0 0 0 
0 0 0 
0.44164550175862299 -0.26761463710850791 -0.15402437865459509 
0.02488251940829498 0 -0.17021047595186142 
-0.36057477476587102 -0.40717305223311206 0.59074310626340598 
0.41079343315514 0.42807202309594278 -1.3635115185392486 
0.058902553987386072 -0.15969719211436353 -0.25088103090753672 
-0.45135264738463055 5.6017112618626086e-18 0.44739568658630074 
-0.042450445120313894 -1.2748414014436571 0.50212435688354329 
0.2020849170202843 -0.21988872233098605 -0.15753108745390634 
-0.23395525308663323 -0.14902477265991673 -0.00025488718722102788 
0 0 0 
0 0 0 
0 0 0 
0 0 0 
0 0 0 
0.17983353144475678 0.045468118621845632 -0.25589815985181064 
-0.094733672216883918 0.22421259890889259 -0.070129577695723755 
0 -0.32533519592859678 0 
-0.34059975513333879 1.1096262561357031 -0.61218993680280864 
0.8867767630021427 0.34579635907563516 -0.74530574274800621 
0.12572732493839534 -0.40538808539864424 -0.12975743545248297 
0.44324682435401258 -0.32533519592859661 -0.42723314738268781 
0.0030791358835782134 0.12183978119526043 -0.23530378124715134 
1.2831242064614392 -1.4858607619996858 -0.79498833467208263 
-0.16942117014121083 -0.35133871318837789 -0.22954247143291889 
-0.60806013644083845 -0.010732012645732177 0.33029896840985384 
0 0 0 
0.29236877597758015 0 -0.2354655467046369 
-0.12390900568920056 -0.19852310802680262 0.12559901375360394 
0.010281964627278706 -0.099794872814883945 0.17033344896897346 
0.29236877597758015 0 -0.50865163701378224 
-0.1617750140827201 -0.058923617816095931 0.15649500938462016 
-0.15122923614442088 0.27361627100097391 0.046208085052802828 
-0.15799933133533609 -0.12713874318862817 0.15428959036577761 
0.60350752056803814 -0.49787299897851695 -0.55165101083860446 
0.29236877597758015 0 -0.2354655467046369 
-0.49488037144577929 0 0.5429473757212705 
0.51623510256659622 0 -0.64992470086770027 
-0.49488037144577929 0 0.5429473757212705 
0 0 0 
0.54039253325674574 -0.22643254236275517 -0.40274836873537878 
-0.49488037144577929 0 0.5429473757212705 
0.12281298248542362 0.063392382919065585 0.063126958998808366 
1.080793874870061 -0.6596758798032607 -0.57499049546891134 
0.21391762439325449 0.27193145897867754 -0.60585325037606341 
-0.5001053491281322 -0.52532376952224846 0.98056980106514502 
-1.043130177538717 0 1.454893187174978 
0.39274259373923037 0.46922179605131936 -0.80182199148551525 
-1.265211377312637 0.60056620671088268 0.49352122922244512 
-0.00035084278015742225 -0.011333201181014104 -0.063127120748716042 
0 0 0.021005128911518265 
0 0 0 
0.67168539898376345 -0.52709339435513547 -0.62211556169557647 
0 0 -2.0423894858342148e-17 
-1.2632655160257396 -0.04564455258559693 0.8088614068485076 
-0.87143382792368607 -0.051430351143744446 0.42988082016932061 
0 0 0 
-0.34896233681438449 -0.25106940789365656 0.40596135203054579 
-0.939650281355628 0.84938372069275592 0.030449264078103055 
-0.71899002914145038 -0.58579089230635961 0.66323593682784321 
-0.21384982784136652 0.53416379619334187 -0.059726834000414696 
0.11539615749802624 0.21327057989712581 -0.11744401583698909 
-0.28749103747325599 -0.00017332795416625905 0.25179863030897426 
0.40708503314221867 0.019368752961027726 -0.37232164514466021 
-3.0724473771050974e-17 1.6474798284764884 -1.4953962533175484 
0 0 0 
-0.31490334803414027 2.2406845047450435e-17 0.25275938710819779 
0.76248364707542116 0.51581466469250881 -1.0327479190779099 
0.51789347888094395 -0.0654267204993981 -0.96570428510948292 
0.15251588163321222 -0.18415556323247836 -0.04648079479080397 
1.2303675297056249 -0.066945219224550892 -0.59514939659766075 
0 -0.066945219224550892 0 
0.10008831821273724 -0.45982819949727671 -0.20591035932347199 
0 -0.066945219224550892 0 
-0.29814107752417635 0.16045139751522802 0.20113634227851843 
0.60262706027500523 -0.29523272712920873 -0.51107026713850567 
0.19034448497919837 -0.22263541267642303 0.25049380866062548 
0.11145563313262485 0.20518222794589167 -0.28018767683458734 
0 -0.49173449003442288 0.5520834354577645 
0 0 0 
1.6039196204062836 0.14638013910215789 -1.0510495440850083 
0.36158989299674577 0.078521311980613517 -0.42840207002260822 
-0.18771342422664333 0.092276045928533099 0.17397143278459271 
0.20158695649122307 -0.85851097656299957 -0.0351886865147494 
-0.63983280067508885 -0.06716142412560859 0.78318598504086967 
0.51514552383659551 0.18282507442065368 -0.74525248207067629 
0.21308707087666498 -0.16999296387358179 -0.4050008910127938 
0.2406984301138714 -0.58410679250281006 0.44076471801965877 
0.22148991601048487 0 -0.42171772012402275 
-0.45994056988091325 0 0.27609988980140576 
-0.4622242462557648 0.48881956007703276 -0.043108107894811488 
0 0 0 
-0.3456507879177616 -0.23572567498558433 0.29243092825416939 
-0.2776704247735251 0 0.26268120933989969 
-0.2776704247735251 0 0.26268120933989969 
-0.3713260731637964 -0.07718702951450232 0.67456369870441901 
0 0 0 
-0.28554902903527463 0.064100777454406746 -0.10902100112509604 
-0.65661148818278536 0.54373846590031161 0.56420347199221088 
0 0 0 
0.8722041549415559 -0.24676803223968205 -0.91280281281496523 
-0.74332762849334522 -0.27706607084978668 0.77657495759107964 
0 0 0 
-0.045701279188342138 0.26287815944529114 -0.25689559934525008 
0.061934276008857633 0 -5.1059737145855369e-18 
-0.066823376543474922 -0.15709621297993945 -0.04424623721366145 
0.14940400195181475 0.52697261636517045 -0.79528483022516028 
0.9801844785426741 -0.19507242131697455 -0.38361091365320588 
0.4295983672255797 0.15337486859668911 -0.70838275766126502 
-0.16354317641217406 -0.031974804950188992 0.24876512154309838 
0.069057766384698197 -0.035107796572443048 -0.1376943057943168 
-0.2484557068987798 0.21616417049232775 0.079781159055556466 
0 0 0 
-0.44105763032884449 0.15166933938356822 0.51633384505496349 
-0.43405346984808574 0.27324994112403245 0.2530355266217717 
1.4980852454936662 -0.59307896716777109 -1.3813558846536977 
-0.91943124800916765 -0.15024426008241648 0.63928733665219872 
-0.14205494768796847 -0.25954691800890833 0.51328648867448812 
1.2004527259601594 -0.25008216655869336 -0.65658278412577764 
-0.37871659833907695 0.84905780115635365 -0.29251386005760538 
-0.22029008533126282 -0.33433164011671623 0.27909453780914861 
0.39079765702964991 -0.59723681640665038 -0.14626466829172258 
0.088663103472774313 -0.16076335476848308 0.057390523761234657 
0 0 0 
0 0 0 
0 0 0 
-0.009017474512012142 0 0 
0 0 0 
0 0 0 
-0.6397924531407686 1.0311599300619303 -0.03828762350545678 
0.59143561887467866 5.6017112618626086e-18 -0.31253062864062497 
-0.045451856208011156 -0.98117934850288535 0.54735607784746776 
0 0 0 
0 0 0 
0 0.20067668212050949 -0.40618458786364792 
0 0 0 
0.3057125971096582 -0.88647494829296158 0.40616436412326135 
0.88513775595692668 -0.24008021478406394 -0.42443536077844191 
0 0 0 
-0.10134028271130539 -0.55029946935593843 0.13617873677823544 
0.27530365566383586 -0.38225424924701917 -0.33432538596181449 
-0.36862007074028441 -0.22159423654625979 0.64302392051040769 
-0.625498890510233 -0.039545256402608212 0.85868652433389558 
0 0 0 
0 0 0 
0 0 0 
0 0 0 
0 0 0 
0.42469563827721168 -0.42973141680711624 0.20147685114256716 
0 0 0 
0 0 0 
-0.78210208671456016 1.5037529755248675 -1.3310188370239335 
-0.050450194000800808 -0.026152595651787632 0.57571041236182863 
-0.23373228013169953 0.27036847874028608 -0.25641475319791668 
-0.40391258666475294 0.15620251262390739 0.95910521395548054 
-0.077300494069411418 0.43278676882494826 -0.22853121831350898 
0 0.019421466941933054 -0.97696968481011714 
-0.40391258666475321 -0.0064147497583141536 0.17309700849152529 
0.2308142994177502 0.8875583910380217 -1.2206766880304669 
0.14726532741205126 -0.80034026122861823 -0.20003332898311149 
-0.21293295978063889 -0.15815085951768088 0.29440753331821762 
-0.145689868246386 -0.56366298931061165 0.30036647433020508 
-0.15072787024525577 0.35400914688258178 -0.12563412984354594 
1.0641725232945041 -0.85335235608963622 -0.51130610324015557 
0 0 0 
-0.40391258666475321 -0.026152595651787632 1.1496658983181289 
1.0335362165215991 0 -0.74836085798955998 
-0.049980551901664977 -1.0987691476284123 0.30083469122011103 
0.01507269271015199 -0.40115124314042239 0.11186525175657105 
-0.012805362516980501 0.75324180273182484 -0.69936418069568473 
0.0005396603307564864 -0.1621646102967538 0.36295685743002692 
0.37380723854967279 0.53391795793448737 -1.1572573458651989 
1.0533323536809385 -0.3016554007738399 -0.503051484444343 
-0.17599158976728246 0.090147853590462595 -0.13767758168186764 
-0.31880944809646461 -0.01251131819168403 0.064723230220016359 
0 0 0 
0.19825780318277714 -0.0062604090432533469 -0.21846896928203272 
0 0 0 
-0.5278085271384575 -0.27533720560225916 0.68690117178882215 
-1.4017287854801947 -0.78542194891431483 1.9883851450713739 
-0.24302664463641377 0.063726962974091222 -0.45847397883403468 
0 0 0 
0.50215965141524888 -0.21954658606721666 -0.17825714463299852 
0.46105535101757039 -0.083966711496747698 -0.62794142745554282 
0.31144130237338313 0.79789654542901045 -0.72960122072040623 
0.099053674890537763 0 0 
0.68011178224448066 -0.096462719240413899 -0.39889596983616504 
0.95943535994566442 0.11606973440204581 -0.93785282845865547 
0.89821717584544347 -0.61977029461494404 -0.4201672274732402 
0.063266043895936472 0.68518868684908851 -0.90064492995875434 
0.42824585118300573 -0.17759669618632057 -0.12305173516954258 
-0.56658447211732399 0.52185500982357369 0.48162703456857114 
-0.78753954936775217 -0.47511381164249511 0.56231531566850412 
0 0 0 
0 0 0 
0.44354063319502351 -0.43385292301312967 0.23383103362121371 
0 0 0 
-0.36635760302770454 0 0.40367767846182795 
0 0 0 
0.059829386504245539 -0.25538990974208498 -0.00083968124463116895 
-0.36635760302770448 0 0.2711497340391355 
-0.37524769710466832 -0.4238602674959937 0.10668191106421178 
-0.52493683986827533 0.36181582994604122 -0.13459356560638164 
0.29031286083283758 0.084199861633388703 -0.20790399984094129 
0.14942325521361008 0.54108682043771239 -0.30063856741704603 
-0.76671686415631701 0.59535430220028274 0.32536226978501909 
0.25774835518620781 -0.37404541845794886 -0.31670365228398262 
-0.36635760302770454 0 0.40367767846182795 
0.30795085043401615 -0.73817331483459792 0 
0.11588388412259126 -0.17397940187130895 0.29591877773102954 
-1.1414267229006794 1.5797904182358344 -0.60975117441241711 
-1.038634331486417 0.2801237151500624 0.58292719898835987 
-0.21796884936814317 0.44942917917951353 0.3391053946468755 
0 0 0 
0.54113270633974508 0.42706996041682377 -0.55874285201817353 
-0.40420948966498377 -0.15926472104860018 0.42374659673240739 
0.30795085043401615 -0.73817331483459792 0 
-0.040217541623983645 0.26495743378126174 -0.13096395405128031 
1.9411599333537635 -0.36584241189953198 -1.7452581157871538 
0 0 0 
0 0 0 
0 0 0 
0 0 0 
-0.66800011804067549 0.75540623622540159 -0.043731555684645942 
-0.3247107628052765 -0.45330878645686817 0.6082069267505984 
-0.5863950380271602 0.15836962172987482 0.18321887164629436 
0.041258805044405954 -0.24484936788981515 -0.03897464346873307 
-1.1789936424235918 1.1243074116266438 0.50062760934525263 
0 0 0 
0.8165566219498086 0.59337468841333385 -0.74937593797828916 
-0.12295927467501047 -0.46013392854623186 0.26136017640859877 
-0.164541107704366 -0.45138243676051765 0.35445158441024355 
0.013798689921520628 -0.62899576819071945 0.052570253815269731 
1.0760865966632047 0.13665989622538235 -1.2919184315254766 
0.47820603281197577 0.35798792294044196 -0.49887378193398751 
0 -0.27516473014076293 0.20269231270455906 
0 0 0 
0.16933312998241773 -0.2124409247241664 -0.029715034812333681 
0 0 0 
0 0 0 
0 0 0 
-0.13129674396327606 -0.017774244982463799 0.072495207849740298 
0.13614848597048129 0 -0.17292191089525252 
-0.23987921047899713 -0.36864571363441656 0.27968208154256563 
-0.0093039436119978242 -0.15029697042095655 0.07995420880400167 
0.53718339615503907 -0.157054218148546 -0.48047763916722402 
0.021234403233351962 0.15588203443183912 -0.162670763247137 
0 0 0 
-0.23987921047899713 0 0.13545825324326999 
0.25387759791987646 0.6485180350616232 -0.14876017388004645 
0 0 0 
0 0 0 
0.33046775837304065 -0.18398760808867734 0.030387053066104786 
0 0 0 
0.0023356597241129431 0.046969608679302798 0.11013353523381725 
0 0 0 
0 0 0 
-0.041336054993363944 -0.077229992650472035 0.013387664575386286 
0.26975319632388794 -0.030432024784044685 -0.056827191967002484 
0 0 0 
-0.05664200865671308 -0.15522892291927676 0.27975011576351905 
0 0 0 
-0.05664200865671308 -0.15522892291927676 0.27975011576351905 
-0.056642008656713094 -0.15522892291927676 0.27975011576351905 
-0.05664200865671308 -0.15522892291927676 0.27975011576351905 
-0.010028003826487152 -0.47391852679040891 0.36998848637101872 
0.34285268435621907 0 -0.54272478067840968 
-0.75472959703445974 -0.14141290145707078 0.88069220057428144 
0 0 0 
0.1478498771375516 0 -0.4951230743097948 
-0.14562955380215195 0.83897856309073793 0.015516933103231705 
0 0 0 
-0.23808399372888267 -8.4025668927939133e-18 0.3044491100215726 
0 0 0 
0 0 0 
-0.64270308181086599 -0.65942331652936281 0.87748050931258725 
-0.31812001639031978 -0.13986908411164573 0.23535203720508244 
0 0 0 
0 0 -0.49786319353864267 
-0.11091324431917265 -0.13986908411164573 0.010867935409674831 
0.3109849415880438 -0.10351831816458329 -0.31552404848605115 
-0.38019766558280227 0.99088309180253809 -0.040015178810840477 
-0.11991058160758877 -0.16572009547590111 0.42663002435462966 
0 0 0 
0 0 0 
0.31962354954233735 0.1678102296804545 -0.29777713571252223 
0.1964148696221536 -0.42078900008296644 -0.26736725471941347 
0 0 0 
-1.0620945148208425 -0.43236667570044096 0.87913646867902839 
0 0 0 
-0.038636590135109436 0 0.051063630612166747 
0 0 0 
-0.27709109117466385 -0.00017332795416625905 0.2517986303089742 
-0.44569361289629317 0 0.37766230224964931 
1.2175560680451698 -0.16820745073922472 -0.51713268226250908 
-0.24323032325775584 -0.37173845757391505 0.45506179710042627 
0 0 0 
0 0 0 
-0.020261041443382609 0.61255010585466707 -0.36447331501660596 
-0.26455246650896336 -0.51328120440803404 0.31593874602251082 
0 0 0 
0 0 0 
-0.44569361289629317 0 0.37766230224964931 
-0.4108585373245266 -0.14363726281093456 0.37089427777584627 
0.13887491375526423 -0.13201351765362018 -0.37549305773588876 
0.37539816347310473 7.0021390773282608e-19 -0.43200285446492692 
-0.001485720171557986 -0.49106426963826699 0.30291074716202104 
0.17703712245584147 0.25901760569521154 -0.39395379711043915 
0 0 0 
1.0671900384694921 0 -1.4719146254906337 
-0.17650132262385085 -0.54005698007438474 0.46944106133371105 
-0.14091718838080047 -0.54257685958005808 0.17571639676909692 
0.040117809245415019 -0.3845673610505847 -0.020632234426651113 
0.35848443398536811 -0.29378834518562907 -0.28162921927125939 
0.38259774433705801 0.019813483185824581 0.046326035875872869 
-0.48386431193480334 -0.079848840647937319 0.42258867503309838 
0.1480318633186328 0 -0.41405974585003724 
0.62285883252432439 -0.77447316775320574 -0.18933799909500759 
-0.18782541477624168 -0.57614711483402758 0.38097691348384338 
0 0 0 
0.1480318633186328 0 -0.41405974585003724 
-0.63909744626728004 -0.23299153530864333 0.42919654687342812 
1.2243165102170046 -0.3616652655920275 -1.1370161570913182 
0.14611263004670913 -0.46271683274258696 -0.10625978194636992 
-0.17105267015735567 -0.33752042877829319 0.02762349922620199 
0 0 0 
-0.57854868771101664 -0.42036024045468251 0.65326742493063039 
-0.23392363100499669 0.22692436752416442 -0.084081357943299601 
-0.078554282316980875 0.067840444149426707 -0.028291156271740465 
-0.2041332366536181 1.4820979322851489 -1.0015009146756091 
0 0 0 
-0.53470872585725626 -0.23880372847626688 0.53656672598201927 
0 -0.20628644051633299 0.095422851577532192 
0 0 0 
-0.26722771813890273 0.045961223432702897 0.28522823197754671 
0.30215696577869949 -0.090010635841765302 -0.21797182829688086 
0 -0.20628644051633299 0.095422851577532192 
0 0 0 
-0.19159227788731079 -0.081969981046592449 0.32047231793957248 
0 0 0.034596605158955698 
-0.19159227788731079 -0.081969981046592449 0.32047231793957248 
0 -0.11033444249035042 0.066387376817295188 
-0.19159227788731079 -0.081969981046592449 0.32047231793957248 
-0.19159227788731079 -0.081969981046592449 0.32047231793957248 
0 0 0 
-0.063337156153115748 0 0.16091800379487262 
0 0 0 
0.13711091376118864 -0.30926294216782341 0.10125830605989566 
0.20606230194237093 -0.16394901670763104 -0.16013164169125294 
0.61568885050097655 -0.90713007260664902 0.19211273864718939 
-0.31386382735251367 0 0.40946581154456485 
0.072369068539818004 -0.082196205915949103 -0.045139306212457812 
0.35050987658248517 0 -0.80507967026027594 
0.43636977869317534 0.0041133799522729067 -0.50174647004693207 
0.22712691030395646 0.17848651387323455 -0.34278500938516454 
0 0 0 
0.26805287363269731 0 -0.060542155216205526 
0 0 0 
0 0 0 
-0.56853252821374933 0.78509508101390968 -0.99120564427383751 
0 0.30204491411104456 -0.55694313366873838 
-0.84753567115660511 0.37389570646990278 0.93527543150303261 
-0.11566965674315112 0.30204491411104456 -0.045814183149794914 
-0.28801793061276088 1.4568524101837859 -1.1189507619299974 
-0.49220483253030001 -0.051149982809573426 0.35014499393567095 
-0.73600932820807896 0 0.78326120193667725 
-0.86537945363655988 -0.39068597198759386 1.2637840615066276 
-0.5359899334735061 -0.40558791041493109 1.1548455998417877 
-0.60196188892074109 -0.28089946137439004 1.1755074284097682 
0.085430550500126851 -0.15242045640709995 -0.019797038229283293 
0.51318042243273154 -0.25140582216730301 -0.34780138624637902 
-0.5359899334735061 0.21316919717155275 0.34338124201198095 
0.81321350771718359 -4.9014973541297827e-18 -0.63734766369212581 
-0.26019133508007775 -0.15288416129293275 0.13502347003757983 
0 0 0 
0.10516899631962624 -0.058404724717042097 -0.30926721886526876 
0.56936209832205287 0.65219782714495012 -1.1194063485412091 
-0.31182878595463986 0 0.30626164449079352 
-0.15677945805500804 0 -0.054867072306151059 
2.4579579016840779e-17 -0.065125527129431718 -0.032327984346391545 
-0.32845715161170741 -0.33650069385948322 0.6430035305773576 
0.40971173207040995 -0.46468916805242544 -0.30138676984354673 
0 0 0 
0 0 0 
0 0 0 
0 0 0 
-0.3036036842684034 0.43364323522595727 -0.077144363924400994 
0 0 0 
-0.28493990727269047 0.014921404320199692 0.2520425516107298 
0 0 0 
0.64733230043525958 -0.34803447334703635 -0.40532245302607894 
0.58864534508413457 -0.59281471716217349 -0.002917701591154015 
-0.66709339832984127 0 0.61940201863841426 
0.38311740606882277 -0.42993459769428988 -0.38843892396140717 
-0.93192984995898642 0.070805378691130738 0.25591777182477188 
0.35555439180984938 0 -0.52104183440235896 
0.15112957814843425 -0.6552689876696699 -0.11599712228706496 
0 0 0 
0.49741628369679308 0 -0.037731855002778987 
0.90894053986331458 -0.21180446920172161 -0.77997294631317715 
0 0 0 
0 0 0 
0 0 0 
0.49741628369679308 0 -0.037731855002778987 
0 0 0 
0 0 0 
-0.31507434329649647 -0.64889401061917606 0.41747987707624523 
0 0 0 
-0.37169005787388615 0.13668812024617102 -0.14243256123826001 
0.41894126637041118 0.39220033796927822 -0.42850280720401801 
0 0 0 
0 0 0 
0 0 0 
0 0 0 
-1.2603135938653354 -0.44092399948239003 1.7522919813275395 
-0.34666745320810222 0.20219662131298305 0.2519762682359073 
-0.44319860333566108 0.48273015205008318 0.072804843222011931 
0.96162340831559434 -0.80594300240453443 -0.80405111208072044 
0 0 0 
0.12822668476767246 0.57268123812344474 -0.48654252051666497 
-0.22515693773473708 0.17252136674228427 0 
-0.22515693773473708 0.17252136674228427 0 
-0.22515693773473702 0.17252136674228427 -0.048435098393771928 
-0.22515693773473708 0.17252136674228427 0 
-0.22515693773473708 0.17252136674228427 0 
0 0 0 
0 0 0 
-0.22515693773473702 0.17252136674228424 -2.0423894858342148e-17 
-0.24742981878494902 0.19539273781719005 -0.14108805480227299 
0 0 0 
-0.22515693773473708 0.17252136674228427 0 
0.74874550960439545 -0.077943458897998114 -0.85677594655175238 
-0.72665733873359706 0.80251099021928085 0.39302342186085748 
0.22427167854198168 -0.24106693689135092 0.36362583098790663 
-0.24786038202165298 0.078650309823472347 -0.046259234431025538 
-0.026879532650140175 -0.29812928640700859 -0.19064821618664665 
0 0 0 
-1.0404099603295947 0.50657992172565858 0.7818371103710241 
-0.65249968190800123 -0.81051955668039477 0.99980141357832253 
0.099324292176896742 0.5280377345802153 -0.47722244236286776 
0.55026640842016206 1.4004278154656523e-17 -0.40111187706100221 
0 0 0 
-1.3756245463377239 -0.14830598989872126 1.1095003938939223 
-0.9869572633887983 0 0.89451654135953373 
0 0 0 
0.20124441857711239 -0.653088967740316 0.187957997839273 
0.37906224291107821 -0.69254541927327784 -0.16312349385894478 
-0.45748459854076773 -0.58468299287721182 0.53803746880612691 
-0.3677701426118114 0 0.13365467190201263 
-0.47146069717899908 -0.28140750626156008 0.96587288800083027 
0.19563455451614195 0.017502974990839248 -0.43320717052460961 
0 0 0 
0.5400053551549906 -0.53672395556575758 -0.17757611445410193 
0 0 0 
1.0471067931816598 -0.25524344786997522 -1.0573182890945776 
-0.1428997403800592 0 -0.25042954977022669 
0.19507697550663719 0.032526830444245321 0.080705580053830786 
-0.41339063756693978 0.89598569732349309 -0.095631744430234811 
-0.084243270697710551 0 0.21929266820071566 
0 0.47816281635642643 -0.57956082058000402 
0.097883473936581505 -0.012276862260332592 0.062528365671785338 
0 0 0 
-0.21787082457290169 0 0.053893695344066822 
-0.20746190523689945 -0.11377476762363944 0.22869467213220523 
0.60927248559141833 -0.27775209890191649 -0.922470179857937 
1.1134002464738948 -0.35881961242770738 4.0847789716684295e-17 
0 0 0 
0 0 0 
0.259701433189721 -0.428911877228557 -0.24470681880926434 
0.32269978387654852 -0.12482557651236149 -0.19518592244652155 
-0.54461868735165997 -0.41179627948946862 0.46355434152813152 
-0.40209328504322711 1.3304064246923696e-17 0.52686988123127632 
-0.94990115728861269 0 0.61901471933283936 
0.98617734192059414 -0.079197752369839905 -0.6137915382048218 
0.23666439276285964 0.049901090371306855 -0.47024301025945281 
-0.94990115728861269 -0.61741680674493005 1.0111872976736205 
-1.3082354675838246 -0.047080996382084975 1.2801943388541908 
-0.28765647027399971 0.20963975592141493 -0.082640075475985508 
-1.2474817382940901 1.7280897417667058 -0.74031925742508253 
0 0 0 
-0.16283729626071938 0.6117771257146899 0 
1.3941349693309573 -0.3512449958108535 -1.1712860454555474 
0 0 -0.34745885519379366 
0 0 0 
0.062737682879440607 -0.36958676112500377 0.073474919369115016 
0 0 0 
-0.15873880657747899 -0.11857631710741501 0.11366796604528842 
-0.36108487299225067 0 -0.066989332633416124 
0 0 0 
0.55303891195156929 0.19815863575138029 -0.62047371423896158 
0.024548473376920094 0.0047518344046067725 -0.34382063778831606 
-1.268309233640692 0.42119012882383278 0 
0.50704878076255522 0.47795295792064663 -1.0141662990866966 
-0.35029754943368624 -0.24394730669906864 0.48731741821346714 
0.15572042023759394 0.0045690935376261968 -0.27039458788645288 
-0.42239738281648709 -0.24394730669906872 0.52306378404547693 
-0.35029754943368613 -0.42809550019114462 0.48731741821346714 
-0.35029754943368624 -0.24394730669906872 0.48731741821346714 
0 0 0 
0.012283183506817782 0.35351828302234739 -0.16997396844539081 
1.6696241841706871 -0.76174079403883732 -1.0618859430919014 
0.18617324272521776 0.35670649912190949 -0.47713285479590473 
0.15477793341817297 0.72955631593880854 -0.56626932101157446 
-0.27852177550725155 -0.42808879087203089 0.5557411917760462 
-0.9530020424465997 -0.25689630657524004 1.2226453203262393 
-1.0494868663052801 -0.39985583712887263 1.0160486268654607 
-0.016690466416467174 0 0.039869913259977366 
-0.016690466416467174 0 0.039869913259977366 
-0.33603379079425721 5.6017112618626086e-18 0.38901030256075214 
-0.016690466416467174 0 0.039869913259977366 
-0.016690466416467174 0 0.039869913259977366 
0 0 0 
0 0 0 
0.37876394435245425 -0.037778671313077376 -0.11717184330008283 
-0.016690466416467174 0 0.039869913259977366 
-0.46072903565392842 1.0294338313502969 -0.28905396391632709 
-0.016690466416467174 0 0.039869913259977366 
-0.29101372677414905 0 0.47252734121706064 
-0.29101372677414905 0 0.47252734121706064 
-0.29101372677414905 0 0.47252734121706064 
0.18650154536232602 -0.72272567856892189 -0.17240376490651432 
0.22963568609387186 0.48472526672514754 -0.39329689551876396 
-0.291013726774149 -0.43178262732386252 0.47252734121706069 
0 0 0 
-0.051615040450183003 0.51918600178626406 0.21653977804620894 
-0.6194198391026996 -0.20518873987525685 0.79236962955428192 
0.260884057413375 0.13788592942031602 -0.3091974694368993 
0 0 0 
-0.11731687313963365 -0.19975197672621098 0.029216766691342388 
0 0 0 
0 0 0 
-0.81939653457698725 -0.30463040709580946 1.0091885258661473 
-0.26203006249174915 -0.047130999190441954 0.0074654593698289962 
0 0 0 
0 0 0 
-0.50578546778897815 -0.69545401450271838 0.57454427680858899 
0 0 0 
0 0 0 
-0.24135914944621689 0 0.19471951838696575 
0 0 0 
0.65038023775237963 -0.74287417501767683 -0.37886240336723731 
0.38017822154873787 -1.2223291818035418 -0.15109842620099462 
0 0 0 
-0.16819179773175935 0 0.22237948037256233 
0 0 0 
0 0 0 
0 0 0 
0 0 0 
-0.51440711477944068 -0.14108441133747229 0.62667994757499657 
0 0 0 
0.10804037872242973 -0.76012114072703774 0.1523471262793018 
-0.16819179773175943 5.6017112618626086e-18 0.10114480622376677 
0.37545243587964205 -0.3416262175896001 -0.3509617705987928 
0.5593215690508565 -0.37215310721467537 -0.26990521178123994 
-0.0037058617516850297 0.085830338355530292 -0.25525776532718586 
1.0038837358636377 0.030228774098290993 -0.40708994224918321 
0.74733520470498838 -0.26837567309467086 -1.058303041129089 
0 0 0 
-0.17922954527719767 -0.0044404915743159953 0.050642465326230131 
-0.034410991093318424 0.5517657354633112 -0.53615633139723362 
0.00044082609714595562 0 0.18523290308347118 
0 0 0 
0 0 0 
0 0 0 
-0.5155620001170006 -0.72328161164236471 1.1873457411105766 
0 0 0 
0.20099369408843665 -0.066024867776644611 0.16409999039163375 
0.045854487418194853 -0.18922708760534138 -0.028169807364948566 
0 0.76735378842188551 -0.6154038341725413 
0 0 0 
-0.021977890922462114 0.57908019887585593 -0.10039501743700563 
0 0 0 
0 0 0 
-1.0934184284226691 -0.16597006434270534 1.8050881451696301 
-0.58117085102460642 0.45077008042560474 0.066526964746494541 
0.39771001693088237 0.25444612303594294 -0.94587104089813889 
0.794255553935999 -0.058544881121363954 -1.3841259091455844 
0.062790147387255649 0 0 
0.23357059276972941 -0.076029998981830244 -0.20342747923843379 
0.062790147387255649 0 0 
-0.48227309739225332 -0.014075755999114051 -0.019637852467145337 
0.062790147387255649 0 0 
-0.039021072122917992 -0.16607545005177887 0.21634655865166003 
0.083609635973323201 -0.24333498517056673 -0.29289235232672134 
0.38932049097386218 0.8668451349751326 -1.3519908649320307 
-0.30217040179854837 0.65417072953057087 -1.0668921264649003 
1.4872547635422664 -2.2898923429996176 -0.93446182345376672 
0.21062010189891464 -0.037102410392354068 -0.27325023932061326 
0.14863680325490516 0 0 
0 0 0 
0 0 0 
0.26182442989906834 0.12487491467967718 -0.28090724112049142 
0.63926953844831536 0 -0.93556716643877702 
0 0 0 
-0.26311218667509118 0.25988958463803741 -0.20707022988778706 
-0.22743409136041606 0.14387499340105253 -0.13844018989814533 
0.90806072711507912 -0.67076018744018817 -0.73156210047764136 
-0.067326086016051001 -0.3112019362092931 -0.061446003572778428 
0.084380176465538193 0.040323975135289195 -0.074355161750661564 
-0.61448745801325344 -0.69021529732078801 0.67975250620639904 
0.16700718392385955 0 -0.19568728730623403 
0 -0.13655525957443415 -2.0423894858342148e-17 
0.15255565483990152 -0.55286776528758175 0.29466913521458027 
-0.090510053713536501 0.25704707109229652 -0.19245263455678502 
0.21648707145490359 0.85434168983380254 -1.2594029745168744 
0.16328896922175268 -0.41167577474079403 0.19979484162065875 
0.44919959983797714 -0.71989466502391775 0.17016724393891516 
-0.60999822730969933 0.95087934214395575 -0.3000091732109198 
-0.028107064681948322 0 0.10412142341170033 
-1.1485987637841475 4.4813690094900869e-17 -0.70306586813394045 
0 0 0 
0.078437843410641181 -0.17114604298565159 0.26208111628720981 
-0.028107064681948322 0 0.10412142341170033 
-0.028107064681948322 0 0.10412142341170033 
0 0 0 
0.10180996375417467 -0.13807832265454864 -0.10006833833199216 
-0.028107064681948322 0 0.10412142341170033 
-0.028107064681948322 0 0.10412142341170033 
-0.028107064681948322 0 0.10412142341170033 
0 0 0 
-0.59991659747010229 -0.055048326044760801 0.20393800482686422 
-0.10119030815531949 1.4254016338613473 -1.2722325853877641 
0 0.063392382919065585 -0.10062308356646926 
1.0976746473272792 -0.40054101043218349 -0.98626360043983075 
0 -0.14963726515512718 0.074555047025278681 
0.036414285706121596 0.0071270521525091312 0.089403600006991768 
-0.35276266091776382 0.75484427098752371 -0.29828797945274765 
-0.62539588501871468 0.094245146078573205 0.56447010775457396 
-1.5138118374794316 0.20871744815326354 1.1498255585884467 
0 0 0 
0.21130287176124077 -0.12569948696663413 -0.29440890633958222 
0 0 0 
-0.25370045169877592 -0.43587995158726617 0.35589583860886703 
0 0 0 
0 0 0 
0 0 0 
0 0 0 
0.09946140929210906 1.1178488475043142 -0.98902243850687233 
0.86946206281338889 -0.43266697960130895 -0.98762470514298939 
0.17512850427449442 0.021086303004086236 -0.16078101324314237 
-0.53571273645021567 -0.7307854664841329 1.3572152144988645 
0.1011718586409243 0.09836487466079942 -0.27313551415759274 
0 0 0 
0.49769474861925883 0.37451610437307642 -0.22474085935393512 
0 0 0 
-0.4997221193757117 0.021545797728736098 0.52887835720356657 
-0.32024660241649183 -0.11202576985046195 0.25318561926888661 
0 -0.088540012316950953 0.055471644453801781 
0 0 0 
-0.19883746421737802 -0.47225815520591535 0.24275732495781252 
-2.4579579016840779e-17 -0.20141534363925764 -0.29484316110517489 
0.27143181719104265 -0.43314133016993689 -0.25889001756432495 
-0.42210700190998857 0.028338309132813388 0.17048473916779103 
-0.65145791204436287 0.4915568691971719 0.51405757500110261 
-0.50908442059126346 0.4915568691971719 0.22233328642115607 
1.3236739681888399 0 -1.2558654514944352 
0.45058175373094184 0.40456406137064488 -0.65542479392538289 
1.5535651764802116 -0.28607519399410752 -1.3114246231229743 
0 0 0 
0 0 0 
0 0 0 
0.20204035114029958 0 -0.74286994555644981 
-0.56182475989150615 0.6350734388291206 -0.5029065019561112 
0.14263308295924654 0.48125214227371438 -0.54316450490460599 
0.062453488426390542 -0.49455023231584039 0.27295557917348823 
0.80283266175281764 0.80961513277080133 -1.4063718524962927 
0.20748690679029025 0.088728401330950682 -0.081605458517636217 
-0.55555716346037398 0.65308075574967739 0.037971839641352319 
-0.14151873170040327 0.21947090095327298 0.21009541737615597 
0 0 0 
0 0 0 
-0.43260934116950078 0.61093387280326705 0.36059215949567008 
0 0 -0.12818114092641472 
0.89657967455924314 -1.0972255285224779 -0.12818114092641472 
0 0 -0.12818114092641472 
0.15354785879865918 -0.27101808093188523 -0.097855653778616866 
0 0 0 
0 0 0 
0 0 0 
0.10516899631962623 -0.058404724717042111 -0.022559912642337074 
0.10516899631962623 -0.058404724717042111 -0.022559912642337074 
0.10516899631962623 -0.058404724717042111 -0.022559912642337074 
0 0 0 
-0.9803198558063535 -0.16321639399269572 0.91155915333237214 
-0.25667488171210034 -0.058404724717042271 0.38980638486012964 
0 0 0 
-0.15827880087778601 -0.12365315587805666 0.05126248161011996 
0.37215984347700976 -0.065358998240871352 -0.12625382856966555 
-0.65531975029779421 -0.12365315587805666 0.51960789865797052 
0.99284898905011443 -0.47925645286666313 0 
1.3736615105815506 -0.47925645286666313 -0.75881586538078105 
0 0 0 
0 0 0 
-0.43567310535583931 -0.24949214341846324 0.20895320141819429 
0.0013199159904731059 0.27514087785854363 -0.22073215655331135 
0.45915617709497086 0 -0.4056886247969943 
-0.55430439471617809 0.51208724219632973 -0.17012989734835959 
0.63968987748017569 -0.62662610801700092 -0.40928997933297467 
0 -0.34649123058392939 0.30110534990936255 
0.19929991696850563 0.4099306789276998 -0.48603988681345034 
0 -0.34649123058392939 0.30110534990936255 
0 -0.34649123058392939 0.30110534990936255 
0.292050075366941 -0.3053532999202026 -0.22954652995943184 
-0.51303334410461876 0.65404239909605566 0.16394995672510904 
0 0 0 
0.63971127568660757 0.11191847666133949 -0.79536038331552061 
0 0 0 
0 0 0 
-0.51934104486406252 -0.63297466411797554 0.65556410143388222 
-0.086279162890081668 -0.25167447730428161 0.096931092255174794 
-0.91659805190132415 -0.02839050889116998 0.65634067986801692 
0.89290303908750845 -0.89466163549960531 -0.31264467286243536 
-0.71556949820468807 -0.201570480369341 0.56293747538041805 
-0.36539200306769126 0.16942533769908458 -0.22124889849775278 
-0.086994825776029863 -0.53494865106990874 0.19521020166610892 
0 0 0 
0.27354161283193579 0.067696872964458879 -0.44684617863788462 
0.39512307356363646 -0.13585015480540405 -0.54726908869506674 
3.0724473771050974e-18 -0.066059711521174069 -0.11100288482962492 
-0.21186858763077665 -0.26543549364757524 0.25641972832105547 
0.13600728091936667 0 -0.50083123479005243 
0 0 0 
0 0 0 
-0.0035645054642821344 -0.43568339369982373 0.24735074071672836 
0 0 0 
0.1460056176875259 0.69772203455302562 -0.28532705266627012 
0 0 0 
-0.50299778783802684 0 0 
0 0 0 
0 0 0 
0 0 0 
0 0 0 
0 0 0 
-0.69950698403978306 -0.23583108960080423 0.87128799936864632 
0 -1.0799105756581773 0.094287540161023226 
0.69897116470202458 -0.50312138165705211 0.019345135112465363 
-0.49390634072474748 0.27003104944671746 0.25358512387424953 
-0.57349175335980351 0.41074154149675657 -0.13240294041771039 
0.50244839748691994 0 -0.21637994854264289 
0 0 0 
0.71920736845305355 4.901497354129783e-17 -0.098405729490570512 
-0.55930471573825935 -0.40544879994302735 0.38276254130295145 
0.21998235295750301 0 -0.24421212871094408 
-0.14988533049625258 -0.010091257900046984 0.20956726581913079 
0 0 0 
0.33740680900719489 0 -0.52050595936216182 
0.5028968295198516 0.046923849964339168 -0.45135666909501909 
0.37500862601349838 0.30010082570826263 -0.9727615566442136 
-0.73328003569610356 0.20979664596603168 0.78977999954687472 
0.25770348472545423 0.04692384996433914 -0.19854118894280934 
-0.37787381544203691 0.25302478690403973 -0.26687879648276092 
0 0 0 
0 0 0 
-0.46319549167745871 0.58707589313141351 -0.043183900875633958 
0 -0.096022118032358036 0.0035793336916240545 
-0.48415542329401512 0.73927342340674174 0.19767337207271743 
0 -0.096022118032357981 0 
-0.76409774531596897 -0.33545685145667603 0.74480410412042652 
0 0 0 
-0.19063966686349665 -0.30514846294204984 0.53146494205120753 
0 -0.096022118032357981 0 
-0.25773459920907016 0 0.099330358983694494 
-1.8778467986811491 0.085954985057548505 0.93516702180355604 
0.76693221495010033 -0.12870148576466375 -0.35991273557714087 
0.17680065451431748 0.017210981034954657 -0.031414454215823527 
-0.25773459920907016 0 0.099330358983694494 
0.38638270575604172 0.14181717051395659 -0.33704290829848582 
-0.47337123667298014 -0.18803840399512298 0.37660009934691913 
-0.57514762979452849 -2.6608128493847392e-17 0.6304074358278654 
-0.69639211275625212 0.64484810343773158 0.5079938520702062 
-0.308914075615148 -0.44460114296141184 0.66456425745141146 
0.4757919994066151 -0.64305623796638256 -0.47975816338902705 
0.044362353106943336 -0.083463047025556916 0.26892247426313681 
-0.30891407561514805 0 0.66456425745141168 
0 0 0 
-0.31130283442443757 0.087147313166344567 0.088220116549213259 
-0.28306238901863373 -0.5098586661555693 0.25301936460985042 
0.36473079818440624 -0.028859430586028193 -0.29822515937526128 
0.2411569540745595 -0.040972875929377345 -0.90490553897974213 
0 0 0 
0 0 0 
-0.053947753747382136 -0.053918632702799445 0.14239957564689648 
0.49348369444641238 -0.26026980645708231 -0.1741030448623368 
0.21272857757109193 0 -0.68281268540408313 
0 0 0 
-0.053635028668111324 -1.1203422523725217e-17 0.25252600078783355 
1.2404537386683494 1.1203422523725217e-17 -1.228096584938277 
0 0 0 
-0.33736126088950297 -0.38289967103200345 0.51161429316515183 
0 0 0 
-0.20098461300369957 -0.16115797315197875 0 
0 0 0 
0 -0.61741680674493005 0.39191875499745765 
0 0 0 
-0.82716887220541679 1.0348444024535484 -0.70994827632808 
-0.40759884311950723 -0.14062731529640121 0.48442263760752646 
0 -0.61741680674493005 0.39191875499745765 
-0.0883362647583463 0 0.13078313204943515 
-0.0883362647583463 0 0.13078313204943515 
-0.0883362647583463 0 0.13078313204943515 
-0.0883362647583463 0 0.13078313204943515 
-0.0883362647583463 0 0.13078313204943515 
-0.0883362647583463 0 0.13078313204943515 
-0.0883362647583463 0 0.13078313204943515 
1.9205557111461173 -0.027940636053054576 -1.4352001485568533 
0.0085424309060278657 -0.033733117988610485 -0.093033856204328594 
-0.29030990051465438 -0.1805730662999713 0.17562382748989053 
0 0 0 
1.3495452833506012 0.30327070304553211 -1.4717024637922962 
1.7047709909114939 0 -1.0696422906896759 
-0.49056594732377434 1.3536511043798729 -0.70417057214550927 
-0.32955020968092502 -0.35213504369798576 0.58195600080320586 
-0.40641619429477399 0.74164730308030713 -0.53268231273544719 
0.065119429597396708 -0.82355737350627867 0.34305148415823467 
0 0 -0.52066690201405574 
0 0 -0.52066690201405574 
-0.24756500175521023 0.23078425090190632 0.12286949169262583 
-0.36093706496301448 0.50804426315627293 -0.091763895587657227 
0.22602228298432753 0.036058375666233912 -0.086202580362506415 
0.054011356548512232 0.055575127048515 0.23727631951383163 
-0.17689728275084873 0.35615742897145497 -0.24525923335843988 
0 0 0 
0.3960701567001807 0 -0.55968713811392024 
0 0 0 
0.1015297977451025 -0.0022122048638074706 -0.29737419520195524 
0.23353105882718134 0.40675697870595079 -0.29450100770566767 
0 0 0 
0.42447356358763083 -0.30730356816011667 -0.23436422506842522 
0 0 0 
-1.1285949601203187 0 0.50041247476138384 
0 0 0 
-0.92672054743714938 -0.50860666490144624 0.72501510702430561 
0 0 0 
0 0 0 
-0.21657183607565669 0.58821358526471501 -0.69259145421046298 
0.082369006203855746 -0.019332616310962388 0.35854894610358756 
0 0 0 
0 0 0 
-0.372136917926222 -0.66954703484748146 0.73783455926101271 
0 0 0 
0.37683506638330561 -0.10716119329555579 -0.068860784377760484 
0.072824378503776918 0.015744267527653028 0.017707413873108473 
0 0 0 
-0.05740602761854461 -0.35717266861946811 0.26032701752384019 
0.57429690475580009 -0.96105526829086563 -0.49159632197314734 
-0.92721956813963591 -0.93798738760654388 1.0644691092464789 
0.84428634941883463 -0.17924067229888624 -0.50199914281283309 
0.76979635570534799 -0.25098817152580261 -0.50199914281283309 
0 0 0 
0.14252475410131504 0 -0.29264829354602051 
0.12028760581287663 -1.3542212631766919 1.2146710755520429 
0.14252475410131504 0 -0.29264829354602051 
0.056406465900191397 -1.1771568796984566 0.72453956980940992 
0.30827345831134473 -0.23330831047668024 -0.40349963612883538 
0 0 0 
0 0 0 
0.14252475410131499 0 -0.29264829354602051 
0 0 0 
0.14252475410131504 0 -0.29264829354602051 
0 0 0 
-1.1612442992563086 0.59903018120180551 -0.15114997705952873 
0.27187067564850254 -0.16135390401089153 -0.11344932532918243 
0 0 0 
0 0 0 
-0.25289869366682871 0.38100162340324201 0.14443207775340391 
-0.48131674697300431 0.10242466250252809 0.26592751152440158 
0 0 0 
0 0 0 
0 0 -0.22566682898335241 
-0.58124425551408743 0.53745621227833573 -0.033076789407735688 
0 0 0 
-0.0062070951080576689 -5.6017112618626086e-18 -0.17861878484716434 
0 0 0 
0.084073533192312006 1.002055443516261 -0.97421801604277103 
0 0 0 
-0.069401959904112687 0 0.14012435492159006 
0 0 0 
0.00086403652730914155 0.0065483744835366231 -0.0726132787148005 
0 0 0 
0.14635034668530522 -0.60911399063491167 0.057554095276174527 
-0.10838933079065133 0.81359283448896003 -0.26968373114070437 
1.1690869180351064 -0.10099965241836213 -1.1342373743533702 
-1.1325720252899583 0.38684040722020541 0 
-0.34498170679316065 0.3240464089441053 0.0088996896076883568 
0.50601594546435402 -0.29262165107600963 -0.43184535101976884 
0 0 0 
-0.65999313651322389 0.14634267460704825 0.46675391935074595 
0.077764052182907287 0.050385406439999149 -0.21064349414792338 
0.55903264539978825 -0.22883360267804248 -0.71966607267498783 
0.35633841697129165 -0.09696481037657044 -0.34884822818136907 
-0.15521476430043929 -0.054884911923538997 0.12369551032004891 
0 0 0 
0.31547031000668985 -1.401239106486823 0.41023969500554097 
1.8210537546300571 0.29792550685612773 -1.7572413693321722 
-0.076592703961370523 -0.31092277682921032 0.023320556890137727 
-0.32770294182053139 -0.48040910926795349 0.71617694082650774 
0.45752504461771792 0.21692095812635295 -0.74543652350543121 
0 0 0 
-0.25561394987621833 -0.40898754874906651 0.25180350987948702 
0 -0.37678261818458281 0.27562147828936528 
-0.33367746784903374 -0.28646282485957414 0.18870428084710192 
0.70722607293767459 -0.013047189624189664 -0.15380088868688119 
0 0 0 
0.092391027106354606 0.059772452121818941 -0.060488427487035111 
-0.31216766874586871 -0.0052607446352437703 0.3742920747102767 
-3.0724473771050974e-17 1.1203422523725217e-17 0.31758426214328828 
0.76824195966815201 -0.19960036978374199 -0.77641999081353363 
0.4427753406322496 0.04606989653092626 -0.47345873063534116 
-0.30709678357482584 0.074090244442518355 0.2077885354897164 
0.78796106465307503 0.10485561244916727 -0.86882434884963111 
0 0 0 
0 0 0 
-0.17823860811735626 -0.18963877569121876 -0.15469972156269321 
0.27293088421218953 -1.3732610920298107 0.45083291634998507 
-0.17297245900146885 -0.63341377257975184 0.39000974079058404 
-0.69658175484774665 -0.4158073283445789 0.25305199015293117 
0 0 0 
0.49013346437021665 -0.72711902053974398 -0.064494495504015328 
0 0 0 
0.1310963194294022 -0.011309723744690496 0.009831394048561648 
0 0 0 
0.97313738899379587 0 -0.73051435894858541 
-0.38560492468635305 0.31977275363677871 0.11372117610171932 
0 0 0 
0.24300114859310978 -0.14376645507784239 -0.017465430493243499 
1.3534810878162584 -0.29779307480057743 -0.97551032122260106 
0.14554741867242785 0 -0.18049823382433949 
0.31133888141729427 0.27144903442772367 -0.44025856006196085 
0.14554741867242785 0 -0.18049823382433949 
0 0 0 
-0.51712929367039973 0.076752729223970528 -0.31528485258464956 
-1.4121668799854998 0.53440019770324532 0.88181770807859938 
-0.28064603056534243 0.39810656307589459 -0.10000135736352737 
0 0 0 
0.5347755225818196 0.146817098099087 -0.90515024340072459 
-0.29931058689056594 -0.12070385416992131 0.71580512060439694 
-0.18343706368608187 -0.16730894749047701 0.29016575609106721 
0.33313749213039068 -0.15694438692508747 -0.18330635707497372 
-0.055200025606059015 0.29197863130259916 -0.16936387700312483 
-0.18343706368608187 -0.010655866632808195 0.29016575609106721 
0 0 0 
-0.22273070044221432 0.40528387126909959 -0.22044106940307104 
0 0 0 
0 0 0 
-0.036165047094356341 -0.15246029146076803 1.2764934286463841e-17 
0 0 0 
2.4579579016840779e-17 -0.45551575573116138 0.24708892703947563 
0.62087869790248718 -0.45943933032666467 -0.42222628184394673 
0.91147085230989566 -0.34622764476733481 -0.078231809248069759 
0 -0.069263992133615726 0.1896043185851328 
0 -0.069263992133615726 0.1896043185851328 
-0.71551892882373069 0.43400057921100871 0.20652741306886052 
0.15569946118783401 -0.082586905943721395 -0.38584357815431158 
0 0 0 
-0.43863349509422933 -0.069263992133615726 0.48357199267333062 
0 -0.069263992133615726 0.1896043185851328 
-1.0591214053399129 -0.25024681141675609 0.82028061534147112 
-0.67996158434039622 0.55543833013182875 0 
1.5574892398197226 -1.7318333703448108 -0.65244851061267439 
0 0 0 
0 0 0 
0 0 0 
-0.49067468943410786 0.0433964087391953 0.10794935842865877 
0 0 0 
0 0 0 
0.59730437502885425 -0.7868955647732464 -0.19451763213855552 
0 0 0 
-0.070719602144977259 -0.28195574051355354 -0.066076740675741943 
0 0 0 
0 0 0 
0.016046754098219124 0 0 
0.016046754098219124 2.8008556309313043e-18 0 
0.016046754098219124 0 0 
-0.26521147611724261 -0.83943700064117843 0.75079154115219005 
-0.22414058531373793 1.4004278154656522e-18 0.21174899351680068 
0 0 0 
-0.25212313533857195 1.0247000928173966 -0.4234603642207117 
0 0 0 
0.048288117161492332 0.32657245312154637 -0.26908981476450872 
0.11971314265560645 -0.17974848827089671 0.10028398720741223 
0.57108990778139868 0.15577528245619107 -0.55614734823332113 
0.20420242632219579 -0.42530973000992428 -0.37725350342569181 
-0.57674054783234707 0 0.71413575346799396 
0 0 0 
0.41508919300595454 -0.1598390261194633 -0.19790558712579831 
-0.52804902669658393 0 0.71413575346799396 
-0.091451821100050179 -0.10627663759264776 0.18390652095277427 
-0.27235820869143501 -0.1293234081686776 0.57651541754277214 
0 0 0 
-0.46427755956732381 0.43377617805552154 0.014933699148851093 
0 -0.55254842573519247 0.65531944205706272 
-0.65739213248252548 0.5704675114698764 0.38173113402763686 
0.079681454766083057 0.35928245009395438 -0.40891093861323857 
-0.030294590842274247 0.19098149056858765 0.0073348570369246406 
-0.95224793927695406 -0.16387103380136958 0.63516019049908135 
0 0 0 
-0.16431249446118609 -2.2406845047450435e-17 0.19598156413856488 
-0.12102850474486104 0 0.18956301638901538 
0.12059782274663072 -0.57347758143520189 -0.08222300004862397 
-0.33616557138882092 -0.1953055741196591 0.25595526554024189 
0 0 0 
-0.12102850474486099 5.6017112618626086e-18 0.18956301638901538 
0 0 0 
-0.0013891949435281496 -0.17444078970618271 0.68857133729083908 
-2.1865033999294785 0.26234006016218248 1.4333906703791428 
2.1507131639735685e-17 0.19510197345973343 -0.077356694650189045 
0 -0.2032676797132203 0 
0 0 0 
0 0 0 
0 0 0 
1.1431782544137292 -0.37906092109188283 -1.0353669194932087 
1.0822771783178784 -0.11090217762406775 -0.059889057495021311 
0.19699043441642433 0.29457588110780808 -0.37106418295997756 
0.23757202642724407 -0.015867843179369172 -0.20518977988232595 
0.48894409061076349 -0.21072043125272258 -0.19869663244579372 
-0.77624500290700182 -0.12704282300392156 0.54144778276718331 
0 0.34908700058866515 -1.2289330504580762 
-0.22292843516177699 0.66583170100656042 0.24497471650986966 
0.12618249629600933 0.22151147633234941 -0.10105435996163979 
0 0 0 
0 0 0 
-0.48041686174849674 0.5361176390006519 -0.14354998780364669 
0.55203416711978059 -0.037500325372566527 -0.19544156502794119 
-0.60906465868908477 -0.69361740463711008 0.72519259047577045 
0 0 0 
0 0 0 
0 0 0 
-1.1000897532156424 -5.6017112618626086e-18 1.0648016897834232 
1.5389205859033053 -0.15301663702291687 -1.0721417127683797 
0 0 0 
0 0 0 
0.84820595166889889 0.18290954678524241 -1.027590126243821 
0.75870722987610195 -0.34042987125646801 -0.3230576476168468 
0 0 0 
0 0 0 
0.061934276008857633 0 0 
-0.33727854013881925 -0.20086377730766136 0.21265483040553679 
-0.38228405790476433 0.34885272254982785 -0.16697789385296341 
0.69556936152362625 -0.43593610463381516 -0.76239307101401443 
-0.70405918242707721 -0.23447860951430732 0.8900044500606783 
0 -0.04017619081625097 -0.066989332633416193 
0 0 0 
-0.44475393837451555 -0.069738350905834065 0.82665918459422982 
0 0 0 
0 0 -0.066989332633416152 
0 0.40507278221555248 -0.74679734950254684 
-0.28888414358912551 0.076358919746636666 -0.12057311208629226 
0.52723702866501809 0.21282895396551135 -0.54704236270770334 
0.36706855196708132 0.69988914003947045 -0.89550643945238251 
-0.85552536449922267 1.1690361045465583 0.42100352956466652 
0.16054520472933154 -0.22398567039619569 -0.17583376367862796 
0.041854781936777719 0.51348107063934689 -0.27176301168035555 
0.19988025136315896 0.57390558775008904 -1.483560458695723 
0.49066004852126194 0 -0.51080227086205365 
0 0 0 
-1.228978950842039e-17 -0.60184785902532767 2.5529868572927685e-18 
-0.42031349776563887 -0.82903994690712002 0.86419822459539841 
0 0 0 
-0.27448733454868918 -0.40604145063874519 0.38324419851552688 
0 0 0 
0 -1.0074877121795369 0.9720270036521037 
0 0 0 
0 0 0 
-0.24164147745674808 0.9216528192011757 -1.5436078838963061 
0 0 0 
0.20043103538755097 -0.61370514404475474 -0.098412047037838402 
0 0 0 
0 0 0 
0 0.54941543942548576 -0.59620119895971846 
0 0 0 
0 0 0 
1.1986368697561069 0.35278553809796875 -1.5149513651609845 
0.26828752850913928 -0.18557209929344548 -0.15225924405185887 
1.4131453198752995 0.09571147790711447 -1.5360719401620571 
-0.07043538849764408 0.0054356426418031853 0.25805780756700325 
-0.53060655245329269 0.47148287756451174 -0.48485792026616154 
0 0 0 
-1.1512477787960822 -0.38054820065155431 0.93093571647283868 
0.25701252012200571 -4.9014973541297827e-18 -0.48416309060257307 
0 0 0 
0 0 0 
-0.22799504233904402 0 0.21164291363523147 
0 0 0 
0.93951549448006955 -0.69222161566754148 -0.85716268746179247 
-0.56287679654719414 -0.00017332795416625697 0.64310434952851259 
-0.66836255485367257 -0.2777597379434556 0.68632130650538437 
0.2831673236718249 0 -0.48827256911581818 
0 0 0 
0.3354315519198649 0.024220065539025379 -0.17524147615412919 
0 0 0 
0.2831673236718249 0 -0.48827256911581818 
0.19037866998157055 -0.39940414155753695 0.58793131517190445 
-0.22236652430569345 -0.54301627673463992 0.61699583424672 
-0.27306028219489925 0 0.23493611958100866 
1.0925927032350828 -0.064661600133150837 -1.7486391382132542 
0 0 0 
-0.52794573733151096 -0.21119531911127801 0.65583142038579734 
0 0 0 
-0.43510259817235125 -0.34506955372749698 0.53311524234687402 
-0.13898048495864501 -0.28792572580104558 0.45928375860453302 
0 0 0 
0 0 0 
-0.36746770148181596 -0.00078987433308769749 -0.12372513864160387 
0 0 0 
-0.094508243427216837 0.10336001439585119 0.3147917392697509 
-0.80717330091033557 -0.31313848495261304 0.60662894170356296 
-0.082967798325462611 0.57792272544251078 -0.9939955270404196 
0 0 0 
0 0 0 
-0.060615699450007353 0.11164919962392379 0.0047739924541534539 
-0.40327817582080333 0.83998615136844657 -0.56764729844241479 
0 0 0 
0 0 0 
-1.508392728982207 2.3899670333649912 -1.2459385392801861 
-0.45659653858622667 1.3402380128147364 -0.76262882815079647 
1.1885979523077492 0.36450333075550112 -1.1465444840640269 
0 0 0 
0.51355077204607757 0 -0.35293139758749076 
0 0 0 
-0.23284157299650185 -6.7220535142351307e-17 0.31670302435449238 
0 0 0 
0 0 0 
0 0 0 
-0.042645914489681851 1.0217878555879063 -0.44738784856021191 
-0.25831162204243813 -0.067440908889180723 0.19079252633745183 
0 0 0 
-1.5345051367979077 -0.17567404528926331 1.4189527997071119 
0.22707247197985653 -0.034427839761137981 -0.086175663943326819 
0 0 0 
0 0 0 
-0.089376182488046713 0.03274403095533205 -0.03767571719113514 
0 0 0 
0 0 0 
-0.36494069088270603 -0.74800348358753954 0.89467540898961728 
-0.25480636446736099 -0.093885702834080514 0.43929535505334866 
-0.40956311877671425 -0.055680475419303627 0.51467867210233131 
-0.25480636446736099 -0.093885702834080514 0.43929535505334866 
0 0 0 
-0.40136238497989796 -0.32795211328761459 0.15598559384002114 
0.67816013891848315 -0.93564613205066927 0.011097833303659425 
0.39201178279345134 -0.0085948071336778894 -0.18709825153462836 
0 0 0 
-0.7991329961095156 0 0.072593318831853534 
0 0 0 
0 0 0 
-0.22045036273405388 -0.96614032662776106 0.49676024225862553 
0 0 0 
0 0 0 
0.99009906518364355 -0.76432850058402946 -0.79076024331701023 
-0.069073197326685778 0 0 
-0.50124494616970505 -0.17799960877556206 0.83832632751865099 
0 0 0 
-0.051925966448370095 0.096048797428976818 -0.078051036475505417 
-0.45912736961855782 0.18602903348064562 0.59639955242665277 
0.61996516691035219 0.032725734000743634 -0.38916110848566565 
-0.45912736961855793 0 0.57784206243270597 
0.043390128640499348 -0.6517482614128326 0.21493578114760084 
0.2685742294121013 -0.094562158766961238 0.042530363694361403 
0.25926275170664614 -4.1312620556236741e-17 0.05583560477741667 
-0.73826943349766927 0.00034671410130530884 0.57860325733884144 
0.14753772425548248 0 -0.21927603858678238 
-0.91117454183447788 -0.053920903409267168 0.99264320596704703 
-0.18027037676197688 0.20903864030100314 0.33376213409168548 
0 0 0 
-0.3545647130691858 0.0066903373259672039 0 
1.4426744751830767 0.0066903373259672039 -1.2562678972967034 
0.087507527372603408 1.2315091956738879 -1.5837223034493992 
0 0 0 
0 0 0 
0 0 0 
-0.97883397080333101 0 0.9134832390638763 
0.072808034151705781 -5.6017112618626086e-18 -0.023690047891119333 
0.42286082875095965 -0.61803617762987451 -0.38783669374594731 
-0.36590017754114518 0 0.23792080084598999 
-0.70918498200722557 0.4836798030250673 0.10937118010661143 
-0.02854489687405402 -0.19682486032718413 0.2618347029961659 
0 0 0 
0 -0.05861786516681633 0.08361353439328198 
0 0 0 
0 0 0 
-0.61466952834625677 -0.18902678373638979 0.62952780471480174 
0.13292486254080171 -0.4828365556970533 0.13687460185922154 
-0.24366437572601074 0 0.25042452787791331 
-0.77220109374505863 0 0.2835101173228749 
0 0 0 
0 0 0 
0 0 0 
-0.50075179603689701 0 0.35980753175753638 
0 0 0 
-0.29681633689883591 -0.085249687445616312 0.1642312096513793 
0.49335384576499447 -1.2560855271566973 0.24113201750179528 
-0.7946510750299336 -0.38838267199546422 1.0090171924313436 
-0.57615951591524939 -0.065782457638041747 0.28639180930911384 
0.019368196852479053 0 -0.1394497117231574 
0.019368196852479053 0 -0.1394497117231574 
0.019368196852479053 0 -0.1394497117231574 
-0.14921292892719637 -0.2613924807116364 0.71315490085491817 
0.019368196852479053 0 -0.1394497117231574 
0.47342692776816514 -0.13129011137789953 -0.4297985252180101 
0 0 0 
0 0 0 
0 0 0 
-0.020762500543451468 -0.20600659319584322 0.24728692911599306 
-0.21607537008411359 1.4500606942664331 -1.2555867163350711 
0 0 0 
0 0 0 
0.0090236368536847252 -0.13673554397245868 0.038708130298146896 
0 0 0 
-0.10439030034697551 0 0.14292029410366136 
0 0 0 
-0.18382992071465107 0 0.12176746869302388 
0 0 0 
-0.10439030034697551 0 0.14292029410366136 
0 0 0 
0 0 0 
0 0 0 
0 0 0 
0 -0.083421087183867954 0.01532183846396106 
0 -0.12933212668788105 -0.069180766649177175 
-0.00347467204598703 0 0.086156747512309076 
0.41332594908560599 -1.3148647173616674 -0.38799741158671996 
0 0 -0.069180766649177189 
0.17256872987391267 0.23366650727037935 -0.86194041623429218 
-0.0064911219358391534 -0.18270485139041123 0.35722595851976474 
0 0 -0.069180766649177189 
0 0 0 
0 0 0 
-0.19687703888812039 0.24739059275616251 0.073184925692017316 
0.41247222113825743 -0.21987704650868581 0.072681697408836163 
-0.73866741969762917 -0.50363365321644438 1.0206206671384987 
0 0 0 
0 0 0 
0 0 0 
-1.2695671463319853 -0.30783489144844522 1.0242462271321056 
0 0 0 
0 0 0 
0 0 0 
0 0 0 
0 0 0 
-0.2611989857962323 0.35603329061237948 -0.038017960227922129 
0 0 0 
-0.46473560830838556 0.237520482544513 0.17045881770374752 
0 0 0 
0 0 0 
0 0 0 
-0.36872812279071943 -0.41207838405639224 0.45436065467327169 
0 -0.10106645546175323 0 
-0.39127019352422887 -0.18670167503087332 0.19098942936837943 
0.23219432378856864 0.23541738257735087 -0.22636087985006018 
0 -0.10106645546175323 0 
0 0 0 
-0.39451932598512779 -0.41328169015276262 0.32682085898625762 
0 -0.97316322680368017 0.18721284986554504 
-0.3366181462131147 1.1829042802749639 -0.70768073549533028 
-0.24135680666730761 -0.50967964251509523 0.29647102617260002 
-0.24487912274285384 0 0.25351365649795143 
1.7580101594261988 3.8861871879171848e-17 -1.1208276021244534 
-0.16320182347499004 -2.8008556309313043e-18 0.047896799374548202 
0 0 0 
0.55254068833622538 0.35128544787501703 -0.9631864924358049 
-0.20809153442532682 -0.42467633329176313 0.16582363816128376 
0 0 0 
0 0 0 
0 0 0 
0 0 0 
0 0 0 
0 0 0 
0 0 0 
0 -0.051349841536505743 0.19185688468630074 
-0.010152286614140395 0.72877395988560156 -0.85184608243936188 
0 0 0 
0 -0.051349841536505743 0.19185688468630074 
0 -0.051349841536505743 0.19185688468630074 
0 -0.051349841536505743 0.19185688468630074 
0 0 0 
-0.2129397709213699 -0.043698931323918534 0.50869415108639515 
-0.056467016588540295 0.19437589755909518 0.17450048840068397 
-0.2129397709213699 -0.043698931323918534 0.50869415108639515 
-0.2129397709213699 -0.043698931323918534 0.50869415108639515 
-0.24933993186645681 -0.25222116163024688 0.42899709885384424 
-0.21147589611697296 0.64970513956977893 -0.51192293661429844 
0 0 0 
-0.30469052655089812 0.52641445194400893 -0.084194474827227431 
0 0 0 
-0.55932364991421646 0.13081343602781556 0.35243996297121771 
-0.24675202970103224 0.52641445194400893 -0.03775750791144853 
-0.30469052655089812 0.52641445194400893 -0.084194474827227431 
-0.30469052655089812 0.52641445194400893 -0.084194474827227431 
-0.30469052655089812 0.52641445194400893 -0.084194474827227431 
0 -0.07542819283863425 0 
-0.37117785898770594 0.66027116847436929 -0.26346180578952227 
-0.20232047177128429 0.39949671427252459 0.24252220300201377 
0.20901758582881869 0 -0.27164089964211358 
-0.071232027955770327 0.66027116847436929 -0.43820541670764745 
-0.019230833438655226 0.23734198301901471 -0.4382054167076474 
-0.071232027955770327 0.66027116847436929 -0.43820541670764745 
0 0 0 
0 0 0 
0 0 0 
0 0 0 
0 0 0 
1.1638499017025061 -0.84723464870145526 -0.70733641518590928 
0 0 0 
-0.62601496126787848 0.85189607741805939 -0.044777163362991299 
0.20312226966638741 0.36384237046165879 -0.25771718964957047 
0.29968519070469463 0.039264330414841925 -0.53550446613832559 
0.82993752796055609 -0.24939648348882532 -0.63452495827020117 
-0.10437126586939909 0 0.026777390014410905 
0 -0.36864571363441656 0.1441867818202246 
0.30898360468645192 0.017936512703287867 0.23228383670354047 
0 -0.36864571363441656 0.1441867818202246 
-0.26913789672912203 -0.57612900350634166 0.81265974306575917 
6.1448947542101948e-18 -0.36864571363441656 0.1441867818202246 
0.22627813656208332 0.79531226070086591 -0.67815556466294324 
0 0 0 
0.5168032473005657 -0.31633166994248474 0 
0.5168032473005657 -0.5714800206238505 -5.1059737145855369e-18 
0 0 0 
0 0 0 
0 0 0 
0.57748583756421401 -0.61101367217636549 0 
0 0 0 
0.51014407901557446 0.056228361725264159 -0.48400869782615868 
-0.28609270593297026 -0.045019367243453928 0.28117095728580233 
0.12279297297339928 0.024873133661050192 -0.024827170018321663 
-0.15034024509479116 1.1947989403365893 -0.74790747609256902 
-0.15034024509479116 1.1947989403365893 -0.74790747609256902 
0.39691762479066595 -0.35880547183995665 0.164038841050198 
0 0 0 
0 0 0 
-0.23842613135838664 -0.10435615548728031 0.3665473770331279 
0 0.12238823529627252 -0.41181122302205636 
0 0.12238823529627252 -0.41181122302205636 
-0.41937202168941506 0.12342735642294192 0.40439137216657012 
0 0 0 
0 0 0 
0 0 0 
-0.75915105316735043 0.72322069788298371 0 
0 0 0 
-0.28583006584726839 -0.034099289713417927 0.27872291099804863 
0.60794216692736991 -0.45325075414143595 -0.54932972768852395 
-0.61257549589559901 -0.24527449312227501 0.61998983285356202 
0 0.30298417990326459 -0.3292860027726317 
-0.15763836122058478 0 0.18357231089098502 
0 0 0 
-0.15890500103638872 -0.2786480854020984 0.42549127113224922 
0 0 0 
0 0 0 
0.2744222739292097 0 -0.0052045360334797754 
0 -0.1846015476331381 0 
0.32422795615965466 0.13906422806654214 -0.43052725654973795 
0 0 0 
0 0 0 
0 0 0 
0.36492635706673815 0 -0.36864317559495302 
-0.30342882568039037 0 0.16124737527939759 
0.74822671054376966 0.022460884942236005 -0.96303344109418576 
-0.67387450343440514 -0.45002717929390512 0.81288110038096251 
-0.59621356831083849 0.069783536781035507 0.78784222908837753 
0.14076614371917112 5.6017112618626086e-18 -0.30195274617152518 
0.14076614371917112 -0.28958147331738199 0.038274787889612819 
0.36792637058986022 -0.024952999578040393 -0.32011335462602741 
0 0 0 
0.14490260024729323 -0.61398254768676164 0.23824686023330863 
0.92477060655657406 -0.18849055383434518 -1.0235085073935388 
-0.5012465560110404 -0.35206594019925558 1.0989766587231997 
-0.5012465560110404 -0.35206594019925558 1.0989766587231997 
0.8182272925089521 0.45433499894603174 -1.6774760653986538 
-0.65815137779535116 0.68841017122532233 0.19129531704772451 
0.31308044821603442 -0.35206594019925552 0.21503393245687666 
0 0 0 
0.24743815921772871 1.4004278154656522e-18 -0.26984600205375159 
-0.26292546062870775 0.27314042924572646 -0.18806974091142439 
0 0 0 
-0.022606880000565613 1.0492585124810885 -0.90270037575743034 
0 0 0 
0 1.1048669973989549 -1.0394071448065214 
0.90429891318821498 -0.351120380785166 -0.77041144911704529 
0 0 0 
0 0 0 
0 0 0 
0 0 0 
0.64161919403728596 0.18840820708428263 -0.56822261361030957 
0.17054909036977184 -0.31095026633862449 0.29222810732014709 
0 0 0 
0.036502741312130584 -0.012504487267792198 0.19285489709987022 
0.68434728300856273 0.068491323018995298 -0.69209330637163713 
0.63961395326606496 -0.56291477858793626 0.023667120150837589 
1.0755852991119585 -0.033064424431993394 -0.90517384564753223 
0 0 0 
-0.7350550705598301 0.011031084974807938 0.48146787700807059 
0.15711958256559544 0 -0.38454904632236625 
0.1947336890438516 -0.14555829122015299 0.0048196491131444795 
-0.082054619466464099 -0.39154777675524277 0.11092577520169655 
2.0467427039505806 0 -1.4551755871008383 
-0.44200360247123188 -0.4350254462714282 0.54389366134555694 
0.21736307916646008 -0.14447008664100261 -0.11938090784956872 
-0.36084309813799093 0.35965994565843573 0.11153037417012066 
0 0.32869040899288215 -0.61957799480035902 
0.41624709534899595 -0.1068825656479378 0.40025028465036655 
-0.50297460899114543 -0.19138650843753349 1.2780681013497477 
0 0 0 
-0.094564877511706141 -0.14647482851836416 0.26348773748643994 
-0.94208587701758095 -0.28649943711275727 -0.51771249073407311 
0 0.32869040899288215 -0.61957799480035902 
-1.228978950842039e-17 0.3286904089928821 -0.42845000931474136 
0 0.32869040899288215 -0.61957799480035902 
0.64146046911924826 0.51921267821818529 -0.97400591159602312 
0 0 0 
0.47470489197243204 -0.15232196643327323 -0.031366415628654373 
2.1136850468221371 -1.6899556817686425 -1.2955614813549239 
0 0 0 
0.080865094139327062 0.5445416643491745 -0.58871442540608487 
-0.56566979655317307 -0.52511817576292952 0.50607465257289319 
0.064470685386196755 -0.22116533936107094 0.095662030660222164 
-0.30056277186554209 -1.4004278154656523e-17 0.45072425554579643 
0 0 0 
0 -0.33988012025867254 0.43472943955202192 
0 -0.33988012025867254 0.43472943955202192 
-0.75270200987805491 -0.41434719723538277 1.1325591602772467 
0 -0.33988012025867254 0.43472943955202192 
0.42236622203562169 -0.52532512240038232 0.19787916816495865 
0 0 0 
0 0 0 
0.6333126630516952 0 -1.0259757090920103 
-0.57568068693877039 -0.37254449096521819 0.58845785450459664 
1.316859598074642 -0.52837341118254455 -1.3364246852951309 
-0.033485802657859817 -1.0193438473665699 0.5248308381077893 
0 0 0 
0 0 0 
0 0 0 
-0.21120666210913902 0.54488558927410813 -0.38877397964210553 
-0.31182878595464003 0 0.30626164449079346 
0.31821457541066955 -0.74549566983676518 0.46031618165648347 
-0.31182878595464003 0 0.30626164449079346 
-0.094564877511706141 -0.14647482851836416 0.26348773748643989 
-0.094564877511706141 -0.14647482851836416 0.26348773748643994 
0 0 0 
-0.4312614655682383 1.4253494444589676 -0.17061160389984706 
0.4132082837697742 0.80760732653057876 -0.23662685715967927 
0 0 0 
-0.012210880544572117 1.2213213123355162 -0.51240219928218855 
-0.56881691152428759 -0.42970165841811103 0.72770604351883206 
-0.069782267154145136 -0.58327346714854489 0.088482719683980929 
-0.0068243880476348559 0.36876924164123859 -0.25675337363340534 
-0.48555448011208868 0.85686737943190361 -0.21928236936336884 
2.3925352506964224 -0.73107341485545885 -2.0720130971288415 
-1.228978950842039e-17 -0.49895307376493564 0 
0 -0.00023522841585067454 0 
-0.20000568801934199 -0.6821791747646615 0.33866227469310384 
0.24622307015314615 -0.30165540077383979 0.25262397084234173 
-0.80167833667394961 -0.74409435503068133 0.71443380452809679 
-0.62842914707605058 -0.56369224723485689 1.553046273957077 
0 0 0 
0 0 0 
0 0 0 
0.28375485061601674 0 -0.23033111326945946 
0 0 0 
0.28375485061601674 0 -0.23033111326945946 
0 0 0 
1.4690404990160042 -0.3021457094610141 -1.3900376933509626 
0.28375485061601674 0 -0.23033111326945946 
0 0 0 
0 0.22866131748642757 -0.40728143484691876 
-0.75048945408471512 0.28964735404041903 0.18301004361432413 
0 0 0 
0 0.26856386236812885 -0.40728143484691876 
0.66821529843566085 -0.049864925880816487 -0.54105912398399669 
-1.4372362266171992 0.45993655632350539 1.1183867710016271 
-0.44059933705103765 -0.079429221077753742 0.49205996986141115 
-0.36741130568960756 0 0.3615784906387785 
-0.44059933705103765 0 0.49205996986141132 
0.48340279964697985 0 -1.0211947429171074e-17 
0.77868850482614682 -0.12209808684097624 -0.45600189106980382 
-0.14743946834456734 0.32608096711833601 -0.11727538108852921 
-0.052486380913778066 0.61868099279254096 -0.16220384008275918 
0 0.38210005097832639 -0.17480557672003028 
0 0 0 
0 0 0 
0 0.38210005097832639 -0.17480557672003028 
-0.028112030612061346 0.38210005097832639 -0.024140719378773323 
1.0414284994411742 -0.44212418017411043 -0.88455988585086676 
-1.3140841334711066 -0.28275203271482491 1.5651086913008139 
-0.28024064160521661 -0.21425448915297635 0.32796861406318267 
1.3674364998972914 0.13662192209634419 -1.3645230852892754 
0.76395191121501083 -0.17459722508926537 -0.31829132843103264 
0.76395191121501083 -0.17459722508926537 -0.31829132843103264 
0.79582218625992485 -0.29755866832094879 -0.8450108823261846 
0 0 0 
0.38414721328072338 0 -0.66884968371682718 
0.38414721328072338 0 -0.66884968371682718 
0.38414721328072338 0 -0.66884968371682718 
-0.280127579069743 -0.62518057701842966 0.78300072200586412 
-0.2377852087983634 -0.33099007150902676 0.15245818758270338 
0.29617175545676327 0.28730430737959112 -0.70906673964677325 
-0.023094428967365167 0 0.15157005711549845 
0 0 0 
0 0 0 
-0.13656097798193309 -0.088188358658009669 -0.40194427057247101 
0.13611096620259452 -0.016126595094121208 0.32607326855042662 
0 0 0 
-1.2452804173463479 0.2098117184220063 0.75830061981618524 
1.1054219440741877 0 -1.3062292743815276 
0.44564261923299542 -5.6017112618626086e-18 0.69735541859296879 
0 0.62886011416298238 -0.095513171448090919 
0.27082821950862174 0 0.49134441242556087 
-2.2721315901377244 1.400826496258903 0.2922054190467453 
-1.8434684262630584e-17 -0.12020714769731886 0 
0.87417283413110691 0.5904962570511938 -1.7338940462190031 
0.54535237777267687 0 -0.56463897182502598 
0.54535237777267687 0 -0.56463897182502598 
0.32624050704022201 -0.15354215618904599 -0.17665458300080134 
-0.17600599710155204 -0.42520597486574235 0.51358186674167217 
0 0 0 
0 0 0 
0.050253090646144166 0.027304481816738946 -0.097008121645184894 
0 0 0 
0 0 0 
0 0 0 
0.27645637511746995 0.56463016044467085 -0.7468927898526817 
0.21254345176528811 -1.0924030899431858 0.011526058485050191 
0 0 0 
-0.2709762918246344 -0.024223271447432731 0.63627844349897367 
-0.0040780507574609505 4.9014973541297827e-18 0.14426407388639803 
0 0 0 
-1.3678355240230053 -0.90129699850640432 1.2551020223293996 
0.10580023414983825 -0.10625738555677286 -0.23195321131211991 
-0.35046389645052606 0 0.19152637448319654 
-0.085064367761811199 -0.74742786377271231 0.16232853444042122 
0 0 0 
0.34955013328170764 0.0028524301478038711 -0.43639852304611326 
-0.011316098750573975 0.19240645726808811 -0.28178941446392319 
-0.52871583214114071 -0.42348707879976055 0.82840958628509798 
0.24889153281215581 0.5536587371394065 -1.904117403897317 
0 0 0 
0 0 0 
0.014377453399115461 -0.14725433203403696 -0.15549767155368671 
0.17277837910411248 0 -0.28343305621509213 
0 0 0 
0.026055120380131611 -0.90914478577783686 0.36265092472297095 
-0.41866565126997501 -0.62290186559092242 0.58014045536592129 
0 0 0 
-0.45699732557736328 0.13996422408028258 0 
-0.24123798067095562 -0.32859900102489686 0.44220256166363398 
0.26386305933970644 0.051228839203533272 -0.69336386433456998 
0 0 0 
0.14487670120798132 -0.098987651465477361 0.036962818118909932 
0 0 0 
-0.87279679909647767 1.0005644834488296 -0.72980243775285503 
-0.36939308056960224 0.87486755086512302 -0.29774920785878439 
-0.40253270031318489 0.64381130681341336 -0.30442344868928622 
0 0 0 
0 0 0 
0 0 0 
0 0 0 
0 0 0 
0 0 0 
0 0 0.57271574421017979 
0.7604647534474005 -0.46972857690126746 -0.48822564624538817 
-0.0009265904055638513 0.80804575430852921 -0.79664932733900251 
-0.0009265904055638513 0 0.57585835130557406 
-1.349960041510968 0 1.0693663173176973 
0 0 0 
0 0 0 
-0.035329720171278209 0 0 
0 0 0 
0 0 0 
0.24029256123952991 0 -0.48780573078723177 
-0.53705823437845202 0.79122274493874578 -0.34759888220008373 
-0.5700123484931322 0.0048959478168052028 0.30547677197224871 
-0.024273964252611233 -0.19322405083193964 0.2226145119805413 
0.68185622564455561 -0.60426944797944449 -0.25374634360252374 
0.71982438065591092 -7.0021390773282608e-19 -0.68173129203824434 
-1.12113370913865 0 1.2768152776494566 
-0.48232474012682702 0.43193370574370721 -0.010181151405228808 
1.2936897521517634 -0.19361891846188153 -0.556457429203984 
0.098420433796545942 -0.050532879216019122 -0.14222665961806266 
0.098420433796545942 -0.050532879216019122 -0.14222665961806266 
0.098420433796545942 -0.050532879216019122 -0.14222665961806266 
0 0 0 
0 0 0 
0 0 0 
0 0 0 
-0.83258031568418989 -0.35473647750369763 0.91725192098699859 
-0.18922728414186291 0.45420442103042186 0.31424674500651384 
0 0.46703862230865473 -0.62118627041290864 
